578 100
衣服 -0.15091664 0.22360222 0.06165149 -0.013656664 -0.031562548 -0.26031724 0.13314614 0.32982013 -0.06481525 -0.1408048 -0.05643983 -0.19271307 -0.0207106 0.08783082 -0.008587041 -0.13154106 0.0294432 -0.15219158 -0.063805595 -0.3722625 0.08667799 0.0018519096 0.045778077 0.02815046 -0.101770476 -0.0051408866 -0.04079839 -0.07180055 -0.1844904 0.009334935 0.08243083 0.07794072 0.098560706 -0.18217725 -0.1357631 0.13647158 0.1000412 -0.015338365 -0.015083453 -0.28895074 -0.04233521 -0.08913235 -0.056605186 -0.023408994 0.12746482 0.010583458 -0.003223743 -0.07115202 0.11308472 0.11815445 -0.035862178 -0.110703744 0.022770355 -0.06485544 -0.005130574 0.12091252 0.046237748 -0.016814105 -0.099721074 0.07870962 0.052389875 -0.004373145 0.06711891 -0.12418007 -0.16568534 0.0950099 0.088209465 0.21256691 -0.21657117 0.17802721 -0.06504196 0.084878735 0.2966526 -0.02900695 0.1842591 0.093543954 -0.01978401 -0.043815687 -0.14847083 0.039979495 0.002024193 0.049009003 -0.14581832 0.0963321 -0.12033148 -0.057243552 0.109156646 0.024370993 0.14823064 0.0369156 0.20669198 0.14342031 0.04800019 -0.0025377204 0.09171209 0.079247065 0.055654816 -0.11554467 0.034414556 -0.043681655
质量 -0.20700663 0.30134833 0.09152167 0.1428217 0.0002604443 -0.3131301 0.15268792 0.4138714 -0.08317019 -0.19434723 -0.03132342 -0.25208178 -0.0072497283 0.105494946 0.026522798 -0.09347298 0.07438022 -0.07007123 -0.09634896 -0.32748175 0.055131897 -0.023358256 -0.02843224 -0.13867636 -0.15653782 -0.013460618 -0.13539428 -0.07227613 -0.036064748 0.024329552 0.056337208 0.033703666 0.12956777 -0.070335776 -0.107837245 0.2088706 0.123278886 0.031495463 0.078906834 -0.34134537 0.035193432 -0.0020631466 -0.018117798 0.072480194 0.0547923 0.04052195 -0.031036066 -0.08918981 0.11730613 0.03762254 -0.040725455 -0.17821452 0.07307351 -0.018219784 0.10545259 0.26684818 0.15324956 0.13051872 0.06727159 0.042872548 0.028525393 0.017276157 0.040861942 -0.16283056 -0.10268203 0.18690166 0.09521006 0.24211976 -0.20553716 0.1111181 -0.108012475 0.038362406 0.33892092 0.02987031 0.27114013 -0.040126003 0.07804035 -0.08444465 -0.12859645 0.0050855917 -0.15552403 0.12785396 -0.010105616 0.0044992203 -0.088138156 -0.049548198 0.081125006 -0.052625652 0.21045406 -0.025805155 0.1980881 0.09928966 0.050896868 0.008755315 0.08248335 0.027863765 0.110710666 0.055584356 0.13804582 -0.02941138
好看 -0.166649 0.15320301 -0.034515336 -0.09015454 0.016314458 -0.27336058 0.08143535 0.30579746 -0.066026084 -0.26284182 -0.03254131 -0.13112435 0.05526487 0.095586345 0.043561283 -0.0848368 -0.014445344 -0.09437299 -0.0042397454 -0.39254656 0.09056311 -0.05311381 0.09564072 -0.009774251 -0.07125063 -0.039514944 -0.036588293 -0.014969438 -0.093001194 -0.053216975 0.11478321 -0.014859629 0.027885167 -0.167627 -0.08297884 0.14985906 0.09920839 -0.023072304 -0.048417192 -0.21817055 0.020297403 -0.0809134 -0.07866969 -0.029562717 0.10995981 0.04517706 -0.023854006 -0.10994913 0.096326545 0.15521592 0.08053243 -0.15343754 -0.10170947 0.048960518 -0.04866975 0.14800438 0.1151819 0.0038315891 -0.046116456 0.02253357 -0.00013385134 0.006243322 0.18562314 0.005528525 -0.16154414 0.09264481 0.11397789 0.16465674 -0.20096944 0.24106045 -0.04733075 0.066270776 0.2862561 0.004077869 0.11756194 -0.033480752 0.08121646 -0.083104886 -0.19082853 0.10168998 -0.06841208 0.08661416 -0.13035345 0.10905412 -0.1269637 -0.031531397 0.08577414 0.1514654 0.096906126 0.040062353 0.20168021 0.23377258 0.08685483 0.06709041 0.14728922 0.09212544 0.10330808 -0.070765495 0.1584296 -0.036213517
不错 -0.113534674 0.16551855 -0.042859502 -0.010634385 0.048402797 -0.31240475 0.055283494 0.31187958 -0.007558375 -0.34608656 0.0984785 -0.14307342 0.027856315 0.0651117 0.11025114 0.023239797 0.07454378 -0.1465856 0.0075247474 -0.38772872 0.023664905 0.013943303 0.105293736 -0.12605718 -0.13435261 0.0017461672 -0.13265951 -0.02698843 0.04862836 -0.059201505 0.0705579 -0.01859409 0.095057055 -0.1283081 -0.083674975 0.13809514 0.10068061 -0.09357823 -0.08484188 -0.22328167 0.07720914 0.022667306 -0.0008830565 -0.053299792 0.12135856 -0.03725867 -0.13339248 -0.089014515 0.088165015 0.14760636 -0.026000796 -0.12554406 -0.08022636 0.1639992 0.078319006 0.18583016 0.16852243 0.08864641 0.11743829 0.028957125 0.04288441 -0.045738984 0.18973793 0.13197403 -0.1201076 0.14779396 0.07106547 0.15307152 -0.14554036 0.13474533 -0.047869284 0.039028965 0.31123662 0.05973261 0.14412265 -0.20938641 0.1224892 -0.11079554 -0.22269346 0.06269113 -0.16580933 0.13249025 -0.063921414 0.13723238 -0.12728505 0.02606874 0.037774842 0.13299875 0.14228834 -0.007493068 0.14116293 0.21160921 -0.016424809 0.12361939 0.13546877 0.09788636 0.06514416 -0.029989421 0.0981179 0.046945013
喜欢 -0.17536221 0.2066586 -0.013229154 -0.03186357 -0.02899127 -0.22125015 0.13101956 0.36704352 -0.08495189 -0.17794192 -0.06119742 -0.1506191 -0.03288811 0.16397245 0.03238884 -0.07920781 0.041272316 -0.10294947 -0.0549211 -0.3699626 0.0824105 -0.0727254 0.085778706 0.006765985 -0.0708172 -0.011501098 -0.051658668 -0.01327488 -0.14190878 0.01982103 0.0972208 0.06664138 0.06264251 -0.18115221 -0.09023271 0.14271316 0.07120722 0.0037895686 -0.0144354915 -0.2587457 -0.03186948 -0.08877727 -0.10161266 0.004853478 0.16654153 -0.003701225 -0.023300806 -0.09358583 0.108617716 0.10355467 0.10115543 -0.1306198 0.015086217 -0.026538061 -0.013248771 0.07296449 0.051940706 -0.006792684 -0.12315628 0.04542817 0.020966688 0.019185401 0.093171105 -0.095891505 -0.15068942 0.11029961 0.13945657 0.23539928 -0.3155199 0.18696295 -0.077096805 0.1078758 0.26028386 -0.043885548 0.16619456 0.06602611 0.0008630188 -0.015786426 -0.13693786 -0.010176707 -0.026489303 0.020067293 -0.1350581 0.09162798 -0.07447864 -0.030031132 0.1340947 0.07686608 0.13208053 0.06228488 0.21030861 0.16165811 0.09635038 -0.0019828575 0.13471082 0.038157366 0.12983279 -0.054441147 0.15818308 -0.057184137
穿 -0.2184721 0.09380061 -0.06439135 -0.107915305 -0.041840926 -0.24799488 0.11324737 0.3133007 -0.053246044 -0.3424686 -0.007946342 -0.1496141 -0.059393283 0.14826491 0.0529461 -0.06018241 -0.011428295 -0.12731966 0.008307081 -0.36053675 0.08523674 -0.08931354 0.210809 -0.025763744 -0.06276967 -0.068248615 -0.066722415 -0.01856308 -0.02762951 -0.09432394 0.15220053 -0.056589175 0.03578481 -0.22025654 0.0037366163 0.13910902 0.13528395 -0.013317297 -0.06304751 -0.15507194 0.055831417 -0.11738749 -0.16496472 -0.07271666 0.11372299 0.03092002 -0.08154837 -0.09427636 0.113031395 0.21363956 0.1259114 -0.18232699 -0.07134603 0.1478862 -0.093062125 0.1663302 0.21527453 -0.04745232 -0.10108786 0.080437906 -0.060533945 0.060482204 0.2420863 0.009590252 -0.13380921 0.04784311 0.0528511 0.158413 -0.23419204 0.20573823 -0.039838757 0.08148077 0.34805626 0.0070173475 0.06246596 -0.09328698 0.0798849 -0.11247353 -0.21594593 0.043091662 -0.10399122 0.0073734955 -0.13397238 0.13084166 -0.120624624 0.013139355 0.13961618 0.19136743 0.059844553 0.12739755 0.24805765 0.2997665 0.0933454 0.07307179 0.20790276 0.11721836 0.08189328 -0.117780484 0.19970869 -0.020763833
买 -0.14023082 0.20678642 0.017654646 -0.08435288 -0.030393777 -0.13056374 0.21476111 0.37508604 -0.079351306 -0.10899364 -0.10447925 -0.09957601 -0.04544756 0.2732279 -0.09204719 -0.11246478 0.13679223 -0.075234264 -0.15511654 -0.27836385 0.05649583 0.09500271 0.09901238 -0.043293405 -0.040719554 0.062013425 -0.094462 -0.23591283 -0.18154286 0.059642162 0.19060715 0.10307026 0.12592383 -0.1613611 -0.04352479 0.16412973 0.0053867428 -0.029217418 -0.100438185 -0.3149784 -0.013875006 -0.15669641 -0.12609951 -0.15951395 0.14830989 0.016724342 -0.057018984 -0.13100746 0.03220157 0.0059307376 0.10595535 -0.17399585 -0.0026092276 -0.13516226 -0.15869373 0.13608016 -0.008687731 -0.2262613 -0.35046673 0.12208896 0.12562425 0.01754451 0.0553132 -0.17335479 -0.13021275 0.065374754 0.11209632 0.030318754 -0.28070408 0.17879888 -0.02714705 0.03928096 0.17257273 0.024935659 0.13096336 0.15110649 -0.070622146 0.10833328 -0.25730118 0.041049905 0.039119978 -0.11605879 -0.23161313 0.11627033 -0.17681275 -0.023793617 0.23663795 0.008127807 0.07101039 0.07941497 0.38761273 0.056650244 0.12794852 -0.01727524 0.13030788 0.063578956 0.02791162 -0.14753436 0.013087957 -0.04413974
上身 -0.149243 -0.06205896 -0.0033787142 0.060745057 0.028391588 -0.32611108 0.026599605 0.33548525 0.02210922 -0.61188835 0.24500643 -0.1569871 -0.0046393555 0.10035555 0.22221398 0.056805823 0.083630845 -0.18612377 0.07197384 -0.42764708 0.062135216 0.09177907 0.22602136 -0.2725323 -0.13804637 0.060041856 -0.32691577 0.007483594 0.17166877 -0.111992665 0.12602238 -0.1661145 0.13327068 -0.16189194 0.044982478 0.123998515 0.083745226 -0.14359415 -0.14474668 -0.12005219 0.20321722 -0.00029517311 -0.04288546 -0.10503486 0.16582175 -0.08201567 -0.4019169 -0.032707326 0.25812387 0.19584091 -0.079788186 -0.2595377 -0.025194911 0.34973425 0.0104658855 0.41453436 0.32473806 0.06504065 0.23147559 0.14097543 0.008885481 -0.019789048 0.29535678 0.3989761 -0.11303265 0.15317987 -0.09990217 0.18894483 -0.037324063 0.1907592 0.023204084 0.033748344 0.41337493 0.09639745 0.04685618 -0.4584875 0.32921427 -0.24922843 -0.32853937 0.009506422 -0.3909086 -0.0045584613 -0.07918762 0.35949844 -0.20763269 0.23244174 0.062254943 0.1812894 0.10793399 0.112844996 0.25629598 0.24706273 -0.054248147 0.18471056 0.20499319 0.20167574 0.06517417 -0.10120563 0.09071077 0.11854019
面料 -0.15109903 0.14139216 -0.07969624 0.05488687 0.10235701 -0.36088166 0.112399526 0.32339555 0.0015474095 -0.47619453 0.22542794 -0.22061741 -0.02646631 0.013192706 0.18098517 0.08661069 0.09732699 -0.1625173 0.028937362 -0.49545613 -0.029084342 0.059750862 0.10218177 -0.3041147 -0.15183893 -0.044050973 -0.24105948 -0.13492373 0.090854436 -0.13536465 0.12034948 -0.12202202 0.24138698 -0.06663818 -0.07730981 0.18806934 0.035737958 -0.12200241 -0.03304647 -0.23775369 0.16692212 0.017118633 0.03092263 -0.06786546 0.15447861 -0.13760202 -0.23523867 -0.057847735 0.16955358 0.21111363 -0.06894481 -0.14451016 -0.10480006 0.36757278 0.11754446 0.3503742 0.32447693 0.08530708 0.26454768 0.074786894 0.012287042 -0.06401341 0.26284575 0.20057029 -0.20749864 0.18486834 -0.0084650675 0.15896504 -0.09268195 0.12690648 -0.022912184 0.0037730983 0.43174937 0.17014425 0.12218891 -0.397965 0.1745772 -0.19113058 -0.3238287 0.07719484 -0.2832599 0.097924665 -0.013224384 0.25889456 -0.13625441 0.14137468 0.044382222 0.08929496 0.20497364 0.045097638 0.12399189 0.30794692 -0.097381234 0.15890385 0.19621465 0.16755469 0.03806321 -0.023718819 0.05410365 0.119514056
效果 -0.1084428 -0.0812417 -0.2977825 -0.09207423 0.04343686 -0.33647087 -0.10452865 0.3188921 -0.0054331776 -0.52866995 0.20335205 -0.1119478 -0.06669985 0.25191092 0.30301973 0.14103225 0.008522286 -0.2442467 0.1158324 -0.52760994 0.006467519 0.039165653 0.278469 -0.19981404 0.03616888 -0.06202724 -0.26482934 0.1266129 0.100552365 -0.22551048 0.22735079 -0.08049824 0.13822222 -0.16472162 0.041055907 0.121081114 0.11335365 -0.1272552 -0.18889512 -0.0173262 0.07352776 0.023275876 -0.10297571 -0.16971569 0.18689488 -0.15179253 -0.30951542 0.017643372 0.14727983 0.3213104 0.14776413 -0.093578875 -0.075626604 0.5112834 0.032619797 0.08122601 0.26901352 0.021640474 0.15401623 0.15948567 0.010463743 -0.020139068 0.36433113 0.3925806 -0.20358907 0.13061276 0.023545204 0.08062749 -0.20803352 0.28162873 -0.004093762 0.19955868 0.2977564 0.0004972168 0.035916194 -0.4195981 0.17075776 -0.2294201 -0.32913575 -0.024837067 -0.19077389 -0.028719775 -0.23682436 0.37905234 -0.18243036 0.18482336 -0.022763427 0.24528441 0.18092676 0.332012 0.11698532 0.42498055 0.07614134 0.2367683 0.32689786 0.17146935 0.09822879 -0.10044795 0.14832065 0.10145709
挺 -0.14970705 0.18835849 -0.0038296375 -0.110279 -0.0092085935 -0.31031626 0.06845629 0.32833427 -0.015877392 -0.20919292 -0.024220573 -0.15696697 -0.018279 0.13828996 0.06312909 -0.034886356 0.02390312 -0.11868441 -0.03523002 -0.37608206 0.05922645 0.009802111 0.07248433 -0.07508188 -0.105134256 0.02740196 -0.09373002 -0.073694944 -0.11389615 -0.02517891 0.097137585 -0.028092355 0.09270202 -0.1577567 -0.064275 0.12085054 0.09177921 -0.026658995 -0.032276448 -0.24541226 -0.00064655003 -0.069089 -0.09340892 -0.038379602 0.10967786 -0.04892038 -0.039824314 -0.08213556 0.12719376 0.15204148 0.04140996 -0.12760927 -0.006721354 0.05537117 -0.0011484607 0.19016543 0.083979376 -0.0032578357 -0.04874125 0.075551495 0.028988583 0.0020791476 0.086285874 0.0088645425 -0.1468547 0.12868334 0.06473849 0.17014243 -0.2148762 0.20973432 -0.07946546 0.06679371 0.2484689 -0.011570845 0.13383318 0.007861952 0.009852751 -0.04861281 -0.19925031 0.03263895 -0.04249381 0.07403487 -0.11275222 0.14302188 -0.14800017 -0.0066769384 0.07106228 0.09956246 0.11481377 0.07385629 0.21681443 0.1726162 0.04633906 0.06755546 0.10989338 0.088549085 0.098593526 -0.073897764 0.0730764 -0.016369909
满意 -0.014405289 0.28607374 0.020553695 0.11758847 0.055488095 -0.30846125 0.14573774 0.36704153 -0.0969099 -0.11959402 -0.010211604 -0.2505086 -0.050165273 0.008856492 0.12835005 -0.03269715 0.096798845 -0.1386011 -0.119349115 -0.43775693 0.0048561366 -0.039504655 -0.11076547 -0.15181312 -0.21577634 -0.02567299 -0.13388751 -0.017174516 -0.07036932 0.03700188 0.022487102 0.10909586 0.1366968 -0.05693499 -0.20438474 0.15881325 0.1214068 0.007168215 -0.018524377 -0.3035418 0.00048716206 -0.059163097 0.098515354 0.13881485 0.13044865 -0.1047173 -0.051467847 -0.061927967 0.11443272 0.15050955 -0.082835644 -0.09322104 0.049460478 0.0120593095 0.085085586 0.2025386 0.13028221 0.1526246 0.07508757 0.013893876 0.06271924 -0.026294744 0.03959551 -0.10714647 -0.1292747 0.25536698 0.099322475 0.32353672 -0.26442024 0.044753782 -0.08853726 0.056127597 0.2839188 0.07411524 0.26721558 -0.031139849 0.08285608 0.026988618 -0.09482977 0.045759164 -0.043260776 0.17795746 -0.104444966 0.013689145 -0.06611314 -0.011843602 0.038066063 -0.022115167 0.28088477 -0.026234938 0.11896681 0.1822961 -0.089666985 0.0034168498 0.1005384 0.040170636 0.13059387 0.028618174 0.06391763 0.0041819103
舒服 -0.25992116 0.22580124 0.014691017 -0.012179599 0.020917099 -0.38865674 0.084395215 0.33684745 0.029281074 -0.43653974 0.10904585 -0.2092763 -0.015300254 0.07444848 0.050619986 -0.05045129 0.071231976 -0.061761882 0.054593332 -0.40139347 0.027308492 0.01603683 0.098043226 -0.19542217 -0.15906705 -0.036151145 -0.22123006 -0.08474022 0.07750256 -0.122789346 0.07022494 -0.15071198 0.1262046 -0.043956842 -0.018969897 0.16061814 0.06596497 -0.11284904 0.016209954 -0.3101301 0.093542024 0.06830082 -0.049259722 -0.050461322 0.011006501 -0.04599892 -0.16147912 -0.106403634 0.17437993 0.17937721 -0.03297667 -0.19821869 -0.004232669 0.22441208 0.08867056 0.37914115 0.27581188 0.09759412 0.18448873 0.09091928 -0.03396471 -0.043859962 0.17372544 0.1038637 -0.15878952 0.115151145 0.025985058 0.17863755 -0.10633949 0.1867326 -0.06825728 0.0060825017 0.39669082 0.07133829 0.14335883 -0.26834136 0.20867817 -0.20694311 -0.31125918 0.053114984 -0.31827673 0.17798342 0.024178796 0.17191954 -0.21263827 0.05145525 0.05527732 0.062484626 0.12056085 0.027458448 0.20517832 0.16146503 -0.023815839 0.09400437 0.10223982 0.087206185 0.06359545 0.027661463 0.16699257 0.12755996
合适 -0.21643347 0.22325979 0.002381601 0.09572859 0.04331833 -0.35911712 0.03221037 0.3092803 -0.002138752 -0.34413454 0.08180466 -0.16783237 -0.04949544 0.15708621 0.13324998 -0.013054434 0.017679388 -0.07030574 -0.0731829 -0.3468407 -0.025152406 0.062049575 0.13492145 -0.17341143 -0.1291692 0.0059875255 -0.23150572 -0.06694139 0.07297072 -0.04550364 0.10573612 -0.087845825 0.12794186 -0.06290017 -0.02369863 0.15168592 0.16246603 -0.042438485 0.017176775 -0.23988575 0.093493305 0.052069355 -0.08998084 0.010991571 0.05367981 -0.02181823 -0.17896087 -0.06467567 0.23454188 0.09721933 -0.017962659 -0.20476727 0.018641084 0.18017639 0.031181995 0.31568488 0.22959234 0.059146516 0.090548776 0.14490956 0.027604764 0.045484867 0.17223923 0.085906915 -0.034749918 0.07557652 0.013409334 0.17426911 -0.18583123 0.17613976 -0.10338167 0.039745685 0.30591616 0.040038373 0.17408414 -0.12729195 0.119194984 -0.10421582 -0.22950365 -0.07751713 -0.22484656 0.039050102 -0.007741442 0.17843479 -0.18697543 0.09785734 0.055268303 0.1017997 0.12377567 0.03527403 0.19921462 0.2686445 0.066983595 0.16283508 0.13813075 0.071699314 0.071166225 -0.022870446 0.12508419 0.07238542
穿着 -0.18367948 0.2583521 0.032949932 0.028291332 0.03669765 -0.2509635 0.17264713 0.30491626 0.0010411495 -0.2729104 0.060936127 -0.21733728 -0.081469044 0.016613955 0.042301476 -0.038136534 0.093524106 -0.05351032 -0.06642027 -0.3947916 0.04333415 -0.08288966 0.0596215 -0.13740596 -0.20201783 -0.05672339 -0.10048258 -0.0851592 -0.000519616 -0.047943838 0.04954035 -0.080539264 0.09201714 -0.1305711 -0.0756597 0.14214076 0.11175111 0.0015246696 0.055615995 -0.22184256 0.08289666 -0.037247527 -0.011172743 0.058956936 0.06980799 -0.018449157 -0.082089856 -0.076293014 0.20699646 0.17085063 -0.01891257 -0.13390444 -0.0013327483 0.11001943 -0.0032702093 0.29307738 0.23972 0.071847156 0.02500017 0.09014843 -0.07625958 0.0121305045 0.16033988 -0.05699696 -0.13652451 0.11583355 0.0041073817 0.22490273 -0.18696217 0.063738555 -0.066935636 0.006688566 0.38957852 0.081406154 0.16746667 -0.13045824 0.12234078 -0.035106637 -0.17834453 0.03702755 -0.21111016 0.110047355 -0.02449507 0.04614007 -0.09979275 0.021250805 0.10451666 0.051409055 0.16899173 -0.036542546 0.17105699 0.2596111 0.017842993 0.039072905 0.12970324 0.03744971 0.07490479 -0.016202176 0.10336435 0.021395244
做工 -0.25224194 0.24057302 0.066341154 0.22817229 -0.063357554 -0.47985166 0.06277526 0.3864042 0.012050824 -0.30195597 0.06029788 -0.29721433 -0.094467185 0.098587915 0.09379893 -0.05200243 -0.040815245 -0.120533295 0.039189152 -0.33700395 -0.024098175 0.043540742 -0.020214668 -0.14769568 -0.20541935 -0.049687237 -0.17175065 0.013864815 0.0953152 -0.07783308 0.07662268 -0.15397684 0.15806188 0.028470606 -0.07627227 0.25423962 0.25970793 -0.041368395 0.057345767 -0.26913455 0.14074323 0.04969069 -0.070826456 0.08259534 0.05114889 0.081544824 -0.19250424 -0.08330633 0.2268038 0.09156312 -0.18452011 -0.20211439 0.15296155 0.21388175 0.14331913 0.441555 0.3107472 0.16854858 0.36902887 0.13969697 0.029218845 0.06597258 0.080751434 -0.014912863 -0.076649815 0.055782616 0.022502601 0.35206586 -0.09221407 0.19349116 -0.15955862 -0.026779441 0.4174368 0.019268759 0.25837713 -0.11214599 0.11165443 -0.2169321 -0.18927895 -0.015012448 -0.2758315 0.12305729 0.047254533 0.12143716 -0.16081953 0.07157299 -0.05266906 -0.02050228 0.24311724 0.05919751 0.09776688 0.18952519 -0.036620695 0.08587734 0.019713722 0.15983936 0.14614913 0.05361924 0.19787149 0.081761695
尺码 -0.0833875 -0.07467656 -0.081379965 -0.15074071 0.10471533 -0.39056352 -0.028448153 0.4052989 0.08233965 -0.44428998 0.12422664 -0.13260928 0.03269789 0.15425491 0.17096566 0.07896005 0.020042067 -0.19363013 0.10330927 -0.43209237 0.17869428 0.16184902 0.16777402 -0.25800908 -0.0795732 0.13232198 -0.2901306 -0.12361364 0.061119553 -0.15359993 0.17168634 -0.1600412 0.17580906 -0.24549934 0.0073992126 0.15312319 0.107769735 -0.13850579 -0.22744791 -0.19323003 0.10846075 -0.11156912 0.0013484175 -0.11477152 0.101270355 -0.068055525 -0.29164472 -0.11576283 0.23166952 0.27147317 -0.032452233 -0.24432632 -0.12274268 0.32298443 -0.0046553174 0.37032476 0.25916195 0.0033419807 0.10611851 0.08010596 0.08303438 -0.047081113 0.22670174 0.36633626 -0.123256356 0.27466485 -0.070463754 0.11638448 -0.008883639 0.2817751 -0.0068003424 0.08062002 0.32942107 0.10841716 0.03243305 -0.48428518 0.21398553 -0.20800586 -0.3652188 0.1577344 -0.21688667 0.025299154 -0.16377334 0.26393765 -0.27610785 0.121192984 -0.0062942985 0.19409783 0.006699186 0.17527522 0.34998795 0.2638636 0.009549278 0.18293035 0.19732074 0.24413566 0.049554355 -0.0822625 -0.0068720654 0.10869411
版型 -0.20855172 0.17226522 0.028885376 -0.0125080375 -0.013795459 -0.3210667 0.08958918 0.37665626 -0.07720289 -0.26920006 -0.027304718 -0.19117229 0.059129022 0.17234084 0.052745968 -0.13716684 0.029345524 -0.11102963 -0.02287642 -0.3297484 0.12455024 0.02996778 0.080293745 -0.059368327 -0.10054095 -0.034743495 -0.1607852 -0.06312005 -0.00023360911 -0.062773764 0.10778763 0.012804996 0.057969544 -0.10999711 -0.021156916 0.21192156 0.10747535 -0.011151237 -0.050111298 -0.27452105 0.05123914 -0.03660288 -0.0556253 -0.030315861 0.038119014 0.057990596 -0.12322791 -0.092747115 0.093766615 0.080476254 0.050880596 -0.1920829 0.013599135 0.024127536 0.026774717 0.21869823 0.17876707 0.04650671 0.012250002 0.06335202 0.019261904 -0.028251054 0.12785313 -0.02216015 -0.13734162 0.114665315 0.08587803 0.12769245 -0.17018367 0.20822436 -0.067932166 0.043559235 0.28691167 0.025690211 0.17176178 -0.08606698 0.1529676 -0.12040702 -0.23642616 0.0825255 -0.17481932 0.09587118 -0.08826921 0.10181995 -0.19264983 0.024957104 0.08290833 0.06934396 0.13367474 0.08279836 0.28048894 0.12131986 0.09786568 0.06572529 0.1417483 0.07085521 0.07607381 -0.021868953 0.16321161 -0.0032262795
收到 -0.15385436 0.29888952 0.09498924 0.19038188 0.0109379245 -0.404024 0.14233531 0.4414545 -0.07926101 -0.10052883 -0.09899086 -0.28343242 -0.0030555169 0.076212645 0.07264895 -0.10010835 0.022202812 -0.095023215 -0.11203135 -0.29653352 0.048808914 -0.0069815405 -0.16548456 -0.07407727 -0.1649505 -0.0062041134 -0.12032288 -0.06192857 -0.08433378 0.058525156 0.026955897 0.07115958 0.091791 -0.038621236 -0.21345039 0.24838212 0.15778695 0.065507494 0.08940915 -0.40891695 0.009305002 -0.0061414824 0.05469428 0.16111028 0.10083377 0.10623665 -0.044226427 -0.09506218 0.17088142 0.0048204744 -0.09950511 -0.18810718 0.08817921 -0.08898665 0.1215356 0.2927531 0.09735478 0.19251029 0.18056986 -0.029539319 0.0821678 0.050483566 -0.037814863 -0.19344601 -0.09093769 0.20615499 0.09964894 0.37485868 -0.25129023 0.14506339 -0.13819575 0.0054772217 0.3051679 0.0025313823 0.3461987 0.07781711 0.032311566 -0.041804362 -0.08320007 0.012285098 -0.112917945 0.12892283 0.012586676 -0.0042358353 -0.05408273 -0.061682407 0.030281803 -0.034204286 0.24330547 -0.082317606 0.13858284 0.1004713 0.024591705 0.03958477 0.0074054706 0.077051945 0.16182819 0.066088535 0.1376089 -0.052841228
款式 -0.2629605 0.31085813 0.07627018 0.09674087 -0.03549564 -0.3026561 0.17063804 0.3824069 -0.07786471 -0.25447625 -0.00709304 -0.19605698 -0.026870463 0.13065265 0.04172742 -0.09630102 0.0750054 -0.051018488 -0.08541412 -0.36181736 0.057638858 -0.043627005 0.03111257 -0.12980208 -0.17901358 -0.0150423 -0.14520848 -0.07891312 0.0016968981 0.014474057 0.01112626 -0.031843834 0.08516286 -0.06775005 -0.06611501 0.20685774 0.09793716 -0.019156557 0.06016945 -0.334599 0.034364972 0.028509453 -0.049533833 0.085998826 0.043544587 0.041922823 -0.08847464 -0.12184568 0.19133776 0.09187985 -0.012911659 -0.22857355 0.031794604 -0.0013434177 0.082657024 0.31073713 0.22254048 0.13216525 0.059586484 0.081011936 -0.035006702 0.01679818 0.077535555 -0.13143231 -0.12448209 0.15586874 0.03861062 0.26445237 -0.26548296 0.12779504 -0.1516467 0.01712852 0.36904287 -0.011619497 0.20348208 -0.069723055 0.15525015 -0.08371625 -0.18902567 0.012062845 -0.21025515 0.11336744 0.006576427 0.028596058 -0.08781819 -0.010554052 0.08526794 -0.0010926819 0.17505029 -0.026635066 0.22912657 0.14780924 0.035355907 0.048477776 0.080754034 0.002258848 0.11827402 0.065096654 0.21043618 0.0035817812
推荐 0.03686826 -0.21182598 -0.22824615 -0.11375147 0.07176672 -0.22561693 -0.033215135 0.3909146 -0.015700929 -0.3898201 0.1002519 -0.09943177 0.06842072 0.28355715 0.30814108 0.041326392 0.0764792 -0.20673245 -0.017109677 -0.36661255 0.105301544 0.18057749 0.09948511 -0.3087378 0.0019996837 -0.027315577 -0.32180607 -0.018986894 -0.00049559446 -0.2280496 0.2891671 -0.07750188 0.19420113 -0.17368677 0.042802677 0.12743971 0.07360493 -0.040190797 -0.30088735 -0.03512224 0.10157443 -0.21278653 -0.110244885 -0.12522177 0.20188053 -0.20879066 -0.3481461 -0.051245626 0.09385441 0.21820296 0.10937255 -0.2062097 -0.07916406 0.27754432 -0.13232665 0.24177574 0.24692109 -0.108088195 -0.055269387 0.15067653 0.12631916 -0.0022510833 0.25332743 0.33034202 -0.14501947 0.27459377 -0.0259264 -0.029914675 -0.13175052 0.26695448 0.11621795 0.09018099 0.1324479 0.11469912 0.044662587 -0.3649758 0.24238513 -0.0928796 -0.40336844 0.07386799 -0.117925294 -0.10361303 -0.33109537 0.44101152 -0.30263507 0.22846593 0.13491677 0.18650724 0.06201243 0.3901815 0.35326824 0.25215024 0.065902 0.18427826 0.3708155 0.24556611 0.13044249 -0.11890076 0.022600334 0.08993389
合身 -0.13146952 0.17194422 0.00985431 0.030194089 0.005418241 -0.27122727 0.07426771 0.38018644 -0.07330311 -0.21392272 -0.0154447835 -0.18671915 0.014067071 0.14587331 0.09522775 -0.050016724 0.054863527 -0.08490816 -0.06073315 -0.32678732 0.08344184 -0.035481673 -0.0058323294 -0.14484614 -0.10679847 -0.0035384288 -0.1579388 -0.0059442776 -0.010464276 -0.052759845 0.080728255 -0.013742208 0.0864064 -0.10319894 -0.06803819 0.15009418 0.099357575 0.0042022844 -0.023783898 -0.26330522 0.017575348 -0.04468536 -0.03946681 0.05486647 0.07093328 -0.014735282 -0.099381454 -0.10632338 0.11772633 0.10837417 0.04052987 -0.17114201 0.016788475 0.06324467 0.038313903 0.19704776 0.1626222 0.10212834 0.0143612055 -0.002919759 0.021987213 0.020993741 0.077732444 -0.005090735 -0.091744 0.19133954 0.06950063 0.2277657 -0.23158814 0.14849886 -0.065376595 0.07062931 0.2648773 -0.004155677 0.20227937 -0.117642015 0.14962375 -0.07873397 -0.17822337 0.03621012 -0.124108106 0.08451156 -0.0851725 0.103522204 -0.120278314 0.003535439 0.08311637 0.06807056 0.13260935 0.080016315 0.22212216 0.14454706 0.06531094 0.054395173 0.16172595 0.0740223 0.14311513 0.03890633 0.19748457 0.016772745
宽松 -0.17304292 0.025065377 -0.11800367 -0.20631349 0.057302777 -0.35092548 0.00042272685 0.36115128 0.010137712 -0.37966517 -0.013461457 -0.106097676 0.0036816152 0.27189985 0.16144237 0.025808115 -0.06308017 -0.15268704 0.030403731 -0.36949286 0.07883405 0.11664321 0.1959806 -0.08813461 0.002883051 0.010547726 -0.20049648 -0.06044847 -0.10396146 -0.12868011 0.17446297 -0.10444221 0.10426589 -0.22250554 0.015746204 0.14791796 0.06429447 -0.09413288 -0.1728671 -0.16265374 0.056421366 -0.12243505 -0.22810075 -0.18654513 0.19354776 -0.059219074 -0.16375214 -0.11096016 0.14968558 0.1996703 0.15787457 -0.20984828 -0.11272151 0.18535678 -0.0771747 0.23521696 0.1607571 -0.1171799 -0.11047174 0.09238727 0.04258191 -0.006071918 0.15815283 0.22439626 -0.12064941 0.12171438 0.011315185 0.06358056 -0.19998616 0.3686905 -0.047612593 0.058857147 0.22482562 -0.013725767 -0.007861307 -0.11903108 0.058661718 -0.12171389 -0.3160026 0.045915958 -0.085073814 -0.0602356 -0.18418664 0.32621717 -0.21449439 0.10549934 0.10683099 0.22150068 0.022433488 0.21411459 0.30000344 0.25516737 0.09159943 0.18252525 0.23159897 0.18987937 0.046563644 -0.13533941 0.06292916 0.046022967
整体 0.05201919 -0.2305532 -0.23575611 -0.42183486 0.06351279 -0.40192705 -0.09730076 0.31345594 0.01819353 -0.5334253 0.14152819 -0.06811901 0.048834972 0.2706828 0.28534016 0.14327735 0.16455811 -0.22835529 0.13581143 -0.50500417 0.16976309 0.26971704 0.18095618 -0.3772933 -0.059625 0.13111582 -0.34589148 -0.15420523 0.009397362 -0.26869747 0.26451698 -0.16501643 0.10220512 -0.26658437 0.04085316 0.0005656039 -0.008391129 -0.12935361 -0.391482 -0.09030332 0.1646233 -0.14756957 -0.03495792 -0.2675551 0.19686402 -0.27810827 -0.37944716 -0.07681598 0.12124957 0.28754315 0.20119077 -0.17092429 -0.16924857 0.42101035 -0.1508605 0.3188075 0.21300137 -0.1366775 0.0067133703 0.06982489 0.09626478 -0.12674548 0.24574855 0.56828916 -0.19573314 0.31358054 0.0010689431 -0.10727227 -0.06851406 0.3590565 0.07601511 0.082167044 0.13196786 0.06693541 -0.030358808 -0.42524797 0.23114537 -0.06972726 -0.5299983 0.20518139 -0.2005573 0.03891645 -0.3153779 0.41945437 -0.39244723 0.18489386 -0.016705254 0.3802195 -0.0052969614 0.34831017 0.40117303 0.20108144 -0.097950704 0.19040956 0.23992941 0.31491753 0.12239547 -0.12873736 -0.062462144 0.24921566
特别 -0.1105516 0.1531245 -0.0056557273 -0.020390756 -0.04255639 -0.28934407 0.12691925 0.30697784 -0.04888431 -0.19184959 -0.01944664 -0.15814227 -0.0467992 0.12700881 0.057716265 -0.03514879 0.052556295 -0.11151848 -0.081290476 -0.36523163 0.044283938 0.05088074 0.009519387 -0.07752634 -0.10756136 0.0035643775 -0.1335742 -0.09615383 -0.095148474 -0.0065579945 0.11718493 0.010836364 0.12876798 -0.10228593 -0.07559361 0.15338631 0.08463928 -0.034073565 -0.04060535 -0.2545317 -0.0032147544 -0.089429595 -0.035855886 -0.011185346 0.1549062 -0.041604124 -0.0793593 -0.08641959 0.15836366 0.117994055 0.02902833 -0.12600982 0.021393038 0.03466273 -0.023004644 0.21663047 0.10251779 -0.0007517524 -0.03692201 0.09736783 0.06169275 0.013795129 0.07326529 -0.014953437 -0.13259 0.12262377 0.04866397 0.18593632 -0.22774652 0.21369739 -0.060942657 0.039749984 0.24551843 0.005396307 0.14596896 0.012150458 0.040165957 -0.021615617 -0.19457166 0.023225758 -0.047789536 0.023566324 -0.13874356 0.1407025 -0.14521909 0.028428756 0.080568954 0.059229065 0.15006068 0.08403287 0.19995058 0.12857415 0.009211154 0.022237537 0.09394574 0.07299413 0.110316165 -0.07421565 0.08380126 0.0010249735
物流 0.057340883 0.4039166 0.051072452 0.0747916 0.028832596 -0.35568804 0.19069575 0.40493613 -0.07704994 0.14597525 -0.16216803 -0.2273522 -0.08778208 0.026430396 0.07080627 -0.040622544 0.045000784 -0.2099427 -0.2764052 -0.48198196 -0.083397426 0.04017314 -0.26032057 -0.028212035 -0.19105047 0.03741434 -0.067287974 -0.09154952 -0.39150313 0.19640061 0.002212368 0.26705337 0.18875502 -0.14351211 -0.36886987 0.19290642 0.12697275 0.037167672 0.03738249 -0.435585 -0.11921729 -0.1515094 0.04598813 0.13793865 0.32910484 -0.12524943 0.09776585 -0.10665305 0.11686371 0.054878283 -0.12578502 -0.02627237 0.04643496 -0.22513418 0.08844858 0.052764077 -0.13446924 0.067045435 -0.10767112 0.013944657 0.23486508 -0.018220527 -0.11652281 -0.24882075 -0.08984458 0.2749677 0.21578987 0.38164017 -0.4650643 0.12481285 -0.17115048 0.06700681 0.18682434 -0.032983642 0.33805227 0.37451056 -0.24315181 0.17456897 0.011025768 -0.022034796 0.25706947 0.08440579 -0.18966469 0.05968532 -0.012692116 -0.0954731 0.08767344 -0.033171996 0.3242265 -0.08613751 0.03353796 0.18627013 -0.01191685 -0.046533983 0.0013097958 0.03670182 0.12145278 -0.04926512 -0.10148852 -0.09298753
帅气 -0.23349388 0.211927 0.055578195 0.024240343 0.018857911 -0.2797272 0.1152208 0.35584888 -0.07493209 -0.25391817 -0.023098586 -0.18688957 0.03863193 0.09955477 0.0036172033 -0.10385319 0.006442904 -0.070681445 -0.01870463 -0.34407613 0.114100955 -0.06562628 0.07381118 -0.07823112 -0.14683083 -0.033964794 -0.10701225 -0.019077564 0.013149093 -0.03637959 0.07836153 -0.014190748 0.067537755 -0.10041582 -0.069533065 0.18991035 0.11619337 -0.009700148 0.016541433 -0.29836714 0.054836947 -0.008352781 -0.057072487 0.028215675 0.030609924 0.07900166 -0.034386445 -0.117590435 0.14511937 0.10160106 0.016623814 -0.19718148 -0.0111334855 0.04845296 0.035901386 0.23529568 0.18658261 0.10051094 0.021149803 0.0076489174 -0.023288121 0.0024835754 0.14145972 -0.061262775 -0.118435174 0.11391178 0.082887016 0.19365023 -0.1858892 0.18275633 -0.088448554 0.034223523 0.34817174 0.015535038 0.18875217 -0.13771887 0.16481976 -0.13985062 -0.19334303 0.07316313 -0.18034133 0.14506678 -0.04463441 0.05266883 -0.11447349 -0.027668769 0.08414446 0.10316889 0.11287053 0.013419822 0.2519145 0.16219604 0.08646646 0.050954178 0.14171599 0.043903455 0.097271495 0.0010791683 0.23138809 -0.0134893935
好评 -0.10892409 0.27292922 0.054876 0.13551497 -0.012711858 -0.2890603 0.15184946 0.33860105 -0.08719232 -0.07211617 -0.04398737 -0.24676833 -0.055169236 0.07269196 0.03798502 -0.1066805 0.07333429 -0.20703718 -0.13373879 -0.34975848 -0.03365028 0.04832012 -0.028741498 0.0014368362 -0.11699968 -0.021877121 -0.09955521 -0.07743597 -0.15621331 0.06837183 0.08807789 0.18987234 0.12895079 -0.10811229 -0.1890989 0.1879266 0.11665155 -0.0031364583 -0.008430748 -0.30312973 -0.039262876 -0.03125377 -0.00027429053 0.003749732 0.16977814 -0.009519674 -0.06786783 -0.030111223 0.07101232 0.03938208 -0.049540848 -0.09500076 0.069622815 -0.06673825 0.022216186 0.124512404 0.04214758 0.033063654 -0.00872582 0.109137446 0.1025733 -0.016833805 0.062182035 -0.17963322 -0.15935226 0.10721534 0.12405979 0.23251255 -0.26157477 0.14202619 -0.112029456 0.07509764 0.28353944 -0.009596877 0.23895156 0.12975127 -0.052983463 -0.018213948 -0.10462472 0.01560893 -0.015691403 0.016754907 -0.14532189 0.06530201 -0.0863002 -0.02752274 0.068431325 -0.036271468 0.29458585 -0.006137276 0.14725663 0.16913323 0.014196555 0.004752303 0.07275846 0.06516432 0.0842065 -0.092198044 -0.020420495 -0.06181785
评价 0.07785152 -0.2434955 -0.3090869 -0.11323023 0.039165303 -0.186727 0.10292636 0.2541978 0.024755862 -0.5571781 0.27272025 -0.07768977 -0.03334715 0.13353828 0.13928732 0.14039017 0.16392523 -0.297924 0.12699118 -0.50525606 0.074856356 0.10326835 0.29762882 -0.212064 0.029675364 -0.07992231 -0.29804456 -0.074657075 0.054047134 -0.16264832 0.38890412 -0.0591346 0.36365944 -0.2996273 -0.01109375 0.101775855 -0.02499906 -0.17729543 -0.35260448 -0.052362125 0.10348202 -0.1591273 -0.0125238765 -0.28662366 0.3108848 -0.19180894 -0.33618253 -0.033909652 0.10442927 0.39165202 -0.046162702 -0.11480076 -0.23164241 0.43356007 -0.086666614 0.1836183 0.26519135 -0.17718932 -0.014160482 0.2102067 0.050359353 -0.12625962 0.4062532 0.45811683 -0.3408192 0.0933204 -0.055062693 -0.06533081 0.031601284 0.23083611 0.18481345 0.0043269205 0.37542105 0.26717055 -0.05624663 -0.56625426 0.15696174 -0.18370515 -0.45712113 0.118615285 -0.14174068 -0.15625751 -0.34806088 0.5390813 -0.25222486 0.22289877 0.1550467 0.20057175 0.08244601 0.2369529 0.26725727 0.349123 -0.087991 0.16566059 0.30388448 0.22752126 -0.10755599 -0.30702648 -0.06858727 0.12570873
厚薄 -0.06153095 -0.2540173 -0.28562778 -0.1679873 0.091027334 -0.31052133 -0.055616453 0.3166928 -0.14683472 -0.7475244 0.26360938 -0.0797288 0.055519536 0.3254768 0.3315513 0.0071987994 0.17344263 -0.35413635 0.022018332 -0.589101 0.058250673 0.25333107 0.4339159 -0.24062294 0.056551468 0.033501226 -0.44873455 0.007737291 0.18180531 -0.28521127 0.31757072 0.027686754 0.10020206 -0.23600225 0.13491374 0.16518505 0.09840768 -0.2369743 -0.45594457 0.059360124 0.14894034 -0.08631033 -0.013336992 -0.2995241 0.19034678 -0.19505082 -0.57095766 0.053686764 0.07847469 0.2554296 0.23258026 -0.22044423 -0.2557303 0.5495685 -0.233329 0.15632294 0.33785364 -0.18671484 0.018372588 0.2463341 0.05786272 -0.15306187 0.6041982 0.62652093 -0.25043395 0.15465522 -0.033305008 -0.17248328 -0.14704381 0.36294207 0.11344506 0.24101658 0.25336066 0.15542208 -0.0893791 -0.5524061 0.3466168 -0.16234504 -0.55876005 0.12163999 -0.34447888 -0.08914263 -0.45825875 0.5173883 -0.46195543 0.3606547 0.049785618 0.38836604 0.11523146 0.39773482 0.40979853 0.48294824 0.03764696 0.28926486 0.4490037 0.22020279 0.034810536 -0.2951342 -0.03985159 0.21288638
客服 0.12045647 0.06109888 0.023650449 0.14314517 0.012041691 -0.10629168 0.23540492 0.33814698 -0.06741426 -0.002468705 -0.063796744 -0.22737028 -0.038375627 -0.081029914 0.03215658 -0.11689697 0.118751265 -0.30185392 -0.15950613 -0.4168838 0.08373832 0.042324647 -0.12829024 0.01405481 -0.10724783 0.031048976 -0.14280787 -0.12064529 -0.2658682 0.048727874 0.1960575 0.25279734 0.25256288 -0.25571603 -0.24355203 0.13481747 0.112070344 0.06627366 -0.16802703 -0.1371757 -0.04297488 -0.28391832 0.16690496 0.032425154 0.2196151 -0.13423559 -0.023223454 0.034238897 0.114396766 0.14311422 -0.16303791 -0.03421972 -0.02658996 -0.08322131 -0.16952786 0.116188444 -0.0060382863 -0.108416714 -0.1614813 0.14963618 0.15662113 -0.036453452 0.15606573 -0.109326944 -0.24401993 0.19908252 0.04592471 0.19658904 -0.16748266 0.033874962 0.030596554 0.097327694 0.26144412 0.1343876 0.2405599 0.07051957 -0.09200297 0.14792326 -0.051818006 0.13036232 0.1009379 -0.090332 -0.3363557 0.1736774 -0.16926828 -0.012198043 0.15025042 -0.046608374 0.24514453 0.04402359 0.18339129 0.24741752 0.008132808 -0.026621664 0.1541493 0.087729536 0.02541443 -0.24433424 -0.26695073 -0.10274957
购买 -0.031563118 0.09665641 0.082815774 0.09162744 -0.008164929 -0.33149597 0.05552332 0.29383036 -0.040000923 -0.23798628 0.081764586 -0.23593506 0.11273322 0.05518486 0.069546945 -0.1322229 0.13877039 -0.20968251 -0.035434462 -0.3424016 0.066491835 0.17203271 0.005634813 -0.071956635 -0.10043683 0.008361287 -0.20615223 -0.102920376 -0.047439754 0.010788848 0.111685045 0.20772693 0.12443305 -0.07523189 -0.16908109 0.28952613 0.093007445 -0.073745176 -0.18466501 -0.2824402 0.026674423 -0.041425563 0.15516582 -0.02934722 0.14815265 -0.013294126 -0.19810832 0.011043432 0.041667234 -0.010683041 -0.008194515 -0.09556955 0.044475332 0.0049955817 -0.04837184 0.18421334 0.04031836 0.056884486 0.08540096 0.109459 0.121114634 -0.13305368 0.15352917 -0.025485545 -0.15730686 0.15703411 0.14306816 0.053763885 -0.13053434 0.18873665 -0.026846472 0.09964977 0.2402841 0.053093106 0.23769273 -0.014671801 0.079832725 -0.08570145 -0.20894313 0.16567084 -0.113521524 0.066102915 -0.21815675 0.032363854 -0.27607286 0.058562323 -0.0040184413 -0.05417014 0.27966636 0.076999046 0.27300224 0.08382092 -0.07459711 -0.041997824 0.045958664 -0.019690761 0.009073766 -0.08124544 -0.031652745 0.0044634207
度 0.03338849 -0.36946854 -0.3679925 -0.24951525 0.055348083 -0.23075482 -0.03271347 0.45233232 0.09153162 -0.7541468 0.3177241 0.011900497 -0.14788574 0.3089019 0.3797192 0.31266332 0.03620159 -0.3286131 0.15358022 -0.5853907 0.06867537 0.12769575 0.44531554 -0.40162408 0.08393478 0.11897526 -0.42618617 0.041284215 0.10137064 -0.20905183 0.3851006 -0.29532298 0.29928464 -0.3877312 0.19206333 0.041720223 -0.04531856 -0.19950226 -0.38514912 0.03236862 0.15279235 -0.26728207 -0.19029705 -0.35139444 0.3434187 -0.3096933 -0.44609848 -0.088641025 0.23354462 0.53984344 0.13237609 -0.254409 -0.18159245 0.6065875 -0.11748254 0.24130641 0.32998064 -0.16369006 -0.057847403 0.24057266 0.033514343 0.05092867 0.4363801 0.6937723 -0.23009612 0.23267367 -0.04426554 0.07513045 -0.110302396 0.3171942 0.15082793 0.13969687 0.34465793 0.12568137 -0.16513667 -0.69139796 0.22987238 -0.2436025 -0.53011924 0.0053929756 -0.12653917 -0.2534208 -0.36375457 0.6738038 -0.19622009 0.36533225 0.111867264 0.3668612 -0.032584205 0.5055869 0.3444906 0.39693514 0.06675874 0.24558887 0.4594618 0.34755793 0.11682647 -0.21206114 0.10599511 0.09846106
真的 -0.050402462 0.2199709 -0.015366931 -0.008121295 -0.025682656 -0.2624641 0.18816021 0.32749704 -0.12307922 -0.047375083 -0.13418506 -0.16145532 -0.056638777 0.15336975 0.005906687 -0.1105671 0.045050442 -0.17151116 -0.1620581 -0.34714794 0.0027893062 0.04954525 -0.009012247 0.028788928 -0.062494963 -0.03666778 -0.03283617 -0.10659947 -0.2494756 0.08490954 0.127311 0.1455091 0.124392 -0.14596239 -0.14587586 0.16781023 0.08512209 0.018247347 -0.057932924 -0.28093165 -0.0851354 -0.15317415 -0.07121105 -0.0056176563 0.20985682 -0.009119391 0.04269128 -0.08059494 0.021918902 0.07595263 0.031828444 -0.04974877 0.0036870935 -0.16146393 -0.071827926 0.07545564 -0.03624996 -0.10074058 -0.19469818 0.08793141 0.09585821 -0.0041621653 0.031666026 -0.18648167 -0.15741394 0.09399942 0.15165086 0.15682746 -0.30949658 0.20934027 -0.041389424 0.06762649 0.17962503 0.01578661 0.18216097 0.23949659 -0.09826163 0.06483309 -0.10768951 0.022757659 0.13818692 -0.0035649457 -0.20181899 0.062090434 -0.09710921 -0.04601004 0.13743056 0.0031713357 0.17995666 0.056356706 0.19999664 0.12531433 0.06919967 -0.033546638 0.061574724 0.049740452 0.06655141 -0.12989639 0.0212745 -0.085613236
值得 -0.18520884 0.13761133 0.004139271 -0.055766735 0.029298743 -0.34118706 0.002889922 0.42559808 0.052002028 -0.1744843 -0.066768974 -0.20866093 0.094935976 0.142651 0.092389464 -0.123422004 -0.10681894 -0.09350786 -0.000818289 -0.27389467 0.16180153 0.020906966 -0.08133951 -0.036748365 -0.14380822 -0.058568794 -0.02232513 -0.08276973 -0.116877295 -0.08622242 0.06540133 -0.014738852 0.122061245 -0.15952013 -0.13296887 0.1792776 0.11632772 -0.021276329 0.009187573 -0.25559905 0.065900594 -0.06660129 -0.08053726 -0.067145646 0.14630729 0.101129785 0.00320171 -0.09474962 0.15322714 0.07088006 -0.077719495 -0.21336164 -0.009513537 0.010808316 0.1304495 0.21131547 0.16914201 0.09954808 0.13032159 -0.044505116 0.10126852 0.01475711 0.054942485 -0.0025273336 -0.08947597 0.208194 0.03350756 0.19939257 -0.1662228 0.25728232 -0.04585027 -0.0051021534 0.3068023 -0.03466383 0.24579708 -0.020649096 0.049983494 -0.15739891 -0.16951652 0.10426779 -0.09062474 0.055104073 -0.07255075 0.16848196 -0.0345255 -0.039884467 0.10350462 0.098620355 0.12361132 0.113498755 0.20254748 0.15668744 0.10138933 0.116211325 0.112037644 0.19696267 0.048236076 -0.054682717 0.08054289 -0.0028105176
外套 -0.28639057 0.28216982 0.059223343 -0.03305926 -0.03389542 -0.34718072 0.10271671 0.35075858 -0.009635232 -0.26166162 -0.022783447 -0.17058894 -0.0056168824 0.20268553 0.009585643 -0.11739793 -0.066750675 -0.062748894 -0.024388164 -0.31708372 0.06496195 -0.027968619 0.11817401 -0.04518176 -0.10277521 -0.039476823 -0.050054956 -0.055668037 -0.08065053 -0.030284252 0.095287055 -0.053072512 0.056375384 -0.13674104 -0.030337568 0.14692678 0.13680488 -0.021695131 0.05005667 -0.32146868 -0.007110139 0.0026338964 -0.20386603 -0.014984704 0.08755912 0.091129415 0.0049444814 -0.10284462 0.18112436 0.09399587 0.0664113 -0.18950757 0.0032230383 0.017564822 0.04569637 0.2094589 0.13720414 0.035077114 -0.049947493 0.07533661 -0.021547578 0.06707984 0.09811781 -0.09128807 -0.090619445 0.053862806 0.07872486 0.20331977 -0.2670087 0.24813315 -0.14126554 0.06290778 0.34607998 -0.06009549 0.17260695 0.045213677 0.016801123 -0.13832915 -0.20940623 -0.03175212 -0.13797191 0.06468247 -0.05591429 0.10609363 -0.12882599 -0.048882846 0.088795274 0.08578519 0.11750872 0.06659498 0.224392 0.19592302 0.12771235 0.09785936 0.105746 0.06128991 0.077705726 -0.023550056 0.18481746 -0.051991377
很快 0.031570744 0.40697256 -0.005073248 0.10760505 0.010996571 -0.3139547 0.24985425 0.388685 -0.10461635 0.14753814 -0.14798975 -0.31123495 -0.15373565 0.0044644354 0.11544182 -0.0061262404 0.036266264 -0.22580741 -0.21937129 -0.52717245 -0.059754588 -0.07886794 -0.26227668 0.018379563 -0.2007139 -0.013093535 0.009094102 -0.07061708 -0.41383824 0.16468288 -0.0026855376 0.29152834 0.23128353 -0.1361242 -0.40251982 0.18006691 0.12552018 0.062287733 0.05767949 -0.3948965 -0.11409106 -0.14183114 0.07500551 0.15371774 0.3858508 -0.13688104 0.10311908 -0.07739707 0.17539644 0.14848481 -0.08899998 0.027611602 0.06399223 -0.1937701 0.094133064 0.051068187 -0.060423706 0.09653105 -0.02994146 0.000804189 0.17971781 0.007171352 -0.1346617 -0.3236 -0.15935585 0.23497973 0.16036369 0.50560164 -0.4537405 0.08766865 -0.13205478 0.08080243 0.24817383 0.002624252 0.34439293 0.33581448 -0.19071592 0.14042369 0.06650503 -0.0026886105 0.22809899 0.039544046 -0.19510087 0.02906061 0.09162601 -0.110845625 0.0733105 -0.05893992 0.4172041 -0.06950693 -0.022187557 0.24406715 -0.06704422 -0.050565086 0.02550324 0.110389054 0.16777816 -0.072375216 -0.058953647 -0.123828165
发货 0.030199982 0.3539606 0.07393727 0.096635126 0.034892567 -0.39480042 0.27969146 0.30728507 -0.09437481 0.070149995 -0.121547736 -0.25319532 -0.14020352 -0.088872835 0.036574498 -0.035365157 0.060769554 -0.2369073 -0.227624 -0.54551524 -0.12681445 0.020325063 -0.20318393 0.07932122 -0.1844685 0.01821486 -0.010472858 -0.15983397 -0.47482258 0.27397734 0.012275238 0.3102636 0.23739909 -0.17556742 -0.4652396 0.22963135 0.05830492 -0.021902768 0.026956527 -0.41377285 -0.089289136 -0.122478485 0.12116063 0.14216569 0.42778534 -0.0791394 0.13310224 -0.07951242 0.15871513 0.11101322 -0.12768058 0.0030437545 -0.024929618 -0.21847613 0.026292754 0.1082354 -0.14197642 0.05515688 -0.045204565 0.0058896765 0.16103135 -0.030985517 -0.06536629 -0.26957497 -0.22371116 0.20310006 0.17053384 0.38899606 -0.4002519 0.17799154 -0.17036301 0.035993483 0.31312078 0.022040367 0.31947502 0.429461 -0.2826592 0.18923505 0.029027274 0.07246255 0.22322486 0.07968032 -0.16058812 0.039700344 0.00068013556 -0.07126252 0.11221491 -0.04529992 0.34099224 -0.21319036 0.008450099 0.2584322 -0.1347984 -0.056539815 -0.08079305 0.03523291 0.062180415 -0.15976702 -0.21361706 -0.115608715
超级 -0.12764576 0.23897724 -0.014946462 -0.028421083 -0.03376613 -0.22207962 0.1360662 0.28168827 -0.038502127 -0.06938186 -0.077095285 -0.14502443 -0.07322056 0.1419758 0.02105833 -0.0863328 0.013826845 -0.12347758 -0.1269669 -0.37736112 0.011122156 0.002370153 0.026701268 0.014275702 -0.069880374 -0.018405847 -0.03219289 -0.085044 -0.21276464 0.061748452 0.09805443 0.06724889 0.13679749 -0.15569504 -0.09942727 0.11675081 0.089918576 0.0045450646 0.018243553 -0.24937502 -0.0659314 -0.113967486 -0.10079093 -0.031838715 0.18831575 -0.060152713 0.031589203 -0.0724009 0.13453385 0.10196151 0.04252188 -0.0522228 0.029265689 -0.0673055 -0.051861692 0.09403709 -0.0063734134 -0.07799598 -0.19273758 0.1295893 0.08231357 0.023970999 0.06584655 -0.11305631 -0.1493533 0.057395644 0.1044063 0.20844725 -0.33252192 0.21872073 -0.06551362 0.082430206 0.21434242 -0.02487322 0.14396873 0.19921118 -0.09743695 0.059391666 -0.109089985 -0.037596922 0.07031148 -0.026481701 -0.16088602 0.1221122 -0.096769445 -0.03153506 0.1284889 0.03363395 0.16317783 0.05141572 0.15014224 0.1726023 0.065830894 0.018708225 0.08065103 0.05680752 0.064275555 -0.13599603 -0.00051127793 -0.059101753
感觉 -0.09827893 0.13521066 -0.06551541 -0.13781247 -0.038773347 -0.2932684 0.11113757 0.31853983 -0.067236945 -0.2275036 -0.025705267 -0.16608292 -0.05535088 0.20031801 0.013943785 -0.054912996 0.10134881 -0.17183977 -0.053965863 -0.35831982 0.0766898 0.12117 0.13388284 -0.08280874 -0.061298728 0.035568807 -0.16668424 -0.16514546 -0.10818756 -0.053531785 0.16689795 0.023372624 0.15369073 -0.1553389 -0.04092218 0.16266659 0.032338165 -0.04557515 -0.15888704 -0.27800736 -0.005881879 -0.11622165 -0.087077886 -0.12514658 0.13374439 -0.0557022 -0.11208903 -0.10476555 0.0522129 0.1422778 0.073797315 -0.13360514 -0.00050576153 0.070000194 -0.07887258 0.16068107 0.07774641 -0.14160761 -0.16617526 0.11212479 0.082072146 -0.040328447 0.1072008 0.0156876 -0.1933033 0.10223998 0.09939298 0.055213198 -0.2115671 0.24297628 -0.021177897 0.04256934 0.22892003 0.029003024 0.072069936 0.01102398 0.015859526 -0.020452358 -0.3225557 0.04752812 -0.03318695 -0.0034947689 -0.22241528 0.16624118 -0.22366077 0.046851605 0.10958282 0.11964442 0.09084412 0.14271782 0.30182856 0.11291029 0.035233907 0.033511374 0.14324035 0.10731603 0.029582398 -0.1213794 0.051361844 0.028202938
大小 -0.2304264 0.20527808 0.05546635 0.04326174 0.04227181 -0.28907597 0.1088971 0.40600678 -0.00264313 -0.16620292 -0.09459234 -0.19741745 -0.02814658 0.085419714 0.07763073 -0.09533866 -0.05740384 -0.07334105 -0.015449311 -0.27986136 0.11283621 -0.08906527 -0.06803252 -0.116532624 -0.12131142 -0.01032355 -0.10153987 -0.013316083 -0.05634051 -0.018388662 0.08242733 -0.06520444 0.08063534 -0.13299434 -0.088451944 0.18260738 0.14218774 0.066732764 0.08555816 -0.28264633 0.027004095 -0.062749214 -0.040198356 0.08060857 0.027589716 0.0639758 -0.02184986 -0.12678562 0.20211367 0.14897822 -0.06477049 -0.20491184 0.013225395 0.015298556 0.101469934 0.336991 0.2185118 0.18589006 0.07683515 -0.020065561 -0.00033365213 0.076139234 0.016025074 -0.10834443 -0.07575714 0.1895798 -0.0030345253 0.3024181 -0.14162369 0.14156753 -0.11943327 0.02086471 0.35054085 0.046218354 0.22694662 -0.17667785 0.113337934 -0.119025774 -0.08718033 0.06256915 -0.13817285 0.10721157 0.0024094612 0.06527789 -0.042095426 -0.07082486 0.09455955 0.039971266 0.0882242 0.0070557822 0.20973349 0.16883974 0.099789776 0.055649262 0.10690415 0.122277334 0.14391378 0.054273777 0.16194746 -0.06960555
男朋友 -0.19842488 0.24382278 0.0031517423 -0.12442057 -0.036952212 -0.20833968 0.112306215 0.3009738 -0.07281853 -0.09821194 -0.12634055 -0.12104688 -0.010950696 0.2662615 -0.035350822 -0.12936479 -0.018471858 -0.0972439 -0.09658216 -0.32003525 0.048950102 -0.014281875 0.11229679 0.06279938 -0.008921641 0.00029647787 0.022704573 -0.055818476 -0.18907188 0.01526476 0.15432741 0.091986716 0.056126866 -0.19622327 -0.029387508 0.12974326 0.11856732 -0.0014627216 -0.038432058 -0.24946685 -0.08290947 -0.06846745 -0.19079731 -0.112530895 0.11232301 0.036418363 0.06480398 -0.078639 0.052701887 0.07544161 0.16083199 -0.09505476 0.004874383 -0.0760852 -0.0992519 0.035104956 0.016923755 -0.10126099 -0.2785438 0.14182961 0.06985088 0.034277808 0.10833051 -0.13935763 -0.1466603 -0.019455388 0.13989191 0.09005786 -0.309634 0.28350955 -0.071971275 0.09391907 0.1952011 -0.06834284 0.10447305 0.18724002 -0.08296508 -0.00030111097 -0.17979564 -0.0028615715 0.07450812 -0.021044988 -0.21832554 0.044052668 -0.11272965 -0.044187542 0.124008484 0.11652597 0.0874231 0.1327205 0.28662118 0.14287536 0.16088395 0.035430755 0.11281785 0.05399093 0.057484023 -0.1467367 0.13188106 -0.094815746
品质 -0.033636495 -0.076072186 -0.25143468 -0.17648874 0.07437033 -0.39415178 0.071994774 0.30690044 0.10155361 -0.58988297 0.31301525 -0.0848532 -0.09429406 0.12223721 0.17590305 0.13194391 0.21140932 -0.25765073 0.09818218 -0.5186769 -0.03367837 0.18968825 0.28489387 -0.34518597 -0.07349723 -0.02852004 -0.32285097 -0.1737778 0.1151986 -0.21592376 0.27460596 -0.12191098 0.28940204 -0.17443836 0.053805515 0.10427256 -0.014913174 -0.26270202 -0.3043271 -0.1255191 0.16806024 -0.037644822 -0.024183052 -0.32257724 0.21229698 -0.2711512 -0.44604117 -0.023945376 0.108675696 0.3262138 -0.013220189 -0.10549648 -0.15070748 0.50187033 -0.07415483 0.36335573 0.33801365 -0.13477686 0.11133311 0.2500197 0.0656341 -0.15354548 0.3804816 0.4469473 -0.27537933 0.1542029 -0.02695905 -0.055494778 -0.04177375 0.23802163 0.06834268 -0.012259369 0.3406302 0.2110235 -0.04170826 -0.4987971 0.22854923 -0.17064658 -0.53122175 0.1358767 -0.29716098 0.0068391263 -0.24794349 0.44427562 -0.30873424 0.2517746 0.08584945 0.18312018 0.12677918 0.18028848 0.26577678 0.30346188 -0.149995 0.1885251 0.22846617 0.23767304 -0.056593124 -0.22338961 -0.10333599 0.22122355
材质 0.08575782 -0.13484181 -0.27939227 -0.1477901 0.11105956 -0.34876904 0.07759735 0.39430577 -0.031677347 -0.5309572 0.26096573 -0.20310837 -0.03580523 0.18313964 0.2271237 0.2481278 0.3756336 -0.22157797 0.0651135 -0.5712815 0.042741694 0.102742575 0.19974978 -0.4643985 -0.112909265 -0.035754386 -0.34757036 -0.13463593 0.18274389 -0.23784623 0.23734483 0.094249725 0.33952796 -0.17844585 0.008386909 0.09634332 -0.0055428515 -0.25526172 -0.428907 -0.14722687 0.16291554 0.013603301 0.038127985 -0.20906629 0.22858326 -0.37815008 -0.45118165 0.0022107374 -0.04919635 0.2585848 0.11071199 -0.121018276 -0.11938891 0.503449 0.0029455556 0.29521438 0.39063188 -0.04418956 0.107678555 0.16556574 0.01536636 -0.2377693 0.38157514 0.39139703 -0.360888 0.34976572 0.023948161 -0.06769922 -0.06221943 0.064569615 0.116703704 -0.024889076 0.34597734 0.24781044 0.0049291756 -0.6222381 0.3994308 -0.14946881 -0.5581497 0.20608196 -0.3201506 0.120269924 -0.2206678 0.31647676 -0.2108388 0.31527486 0.1312724 0.22060159 0.23253502 0.24075235 0.3569969 0.30004823 -0.18366215 0.18577777 0.4053186 0.26980993 0.011969532 -0.1287691 0.04120078 0.254412
, -0.15733664 0.20833823 0.0047698654 -0.053247664 0.01859129 -0.37160406 0.13301685 0.24097799 0.028499736 -0.30255795 0.08749724 -0.090503804 0.029788107 -0.0012125568 0.019564271 -0.06097151 -0.03548769 -0.20668437 0.035804402 -0.38966402 -0.09826334 0.17523402 -0.006923493 -0.025548382 -0.035027746 -0.00032751568 -0.07499915 -0.1955043 -0.24250777 -0.005549508 0.10548168 -0.03669864 0.10364825 -0.09711085 -0.20535262 0.17012964 -0.03642304 -0.10879149 0.037875753 -0.3377156 0.07177554 -0.06304641 -0.108722165 -0.15772782 0.28149822 -0.017654622 -0.010982062 -0.11310982 0.16190284 0.10795201 -0.09464485 -0.10107394 -0.13177669 0.030798336 0.0057909354 0.18714716 -0.028281339 -0.12643768 0.052638024 0.050270226 0.17097528 -0.042955928 0.11058102 0.0618358 -0.20776291 0.013443908 0.037373073 0.11509786 -0.09735821 0.30546552 0.018493379 0.04393843 0.2703076 0.06479868 0.1589678 0.11628465 -0.17295994 -0.10683711 -0.20224425 0.030610478 0.012515945 -0.04201022 -0.12734032 0.29264575 -0.15767732 -0.055706978 0.026528312 0.060880225 0.134702 -0.06434551 0.12552734 0.20367612 -0.045877602 0.12103341 0.005410266 0.13028751 -0.044963207 -0.16033149 -0.18542139 -0.060194694
" -0.092476085 0.27136388 -0.011400275 -0.06597238 0.11725125 -0.4150439 0.060526337 0.23216437 0.06739531 -0.20950665 0.07272836 -0.0815657 0.028726244 0.05237882 0.10349791 -0.099578865 -0.067982495 -0.20038915 0.0007829921 -0.36233187 -0.068645164 0.12790991 0.073148355 0.09058396 -0.084957376 -0.0688941 -0.02315575 -0.11309642 -0.2559274 0.07589313 0.10062182 0.020783847 0.16378109 -0.1275187 -0.21698163 0.20917019 0.045633763 -0.09890354 -0.03731522 -0.2514998 -0.00705649 0.03816049 -0.02960053 -0.09320588 0.25651515 0.038300168 -0.00039701813 -0.002216948 0.14841413 0.06291174 -0.05652562 -0.09921532 -0.104477145 -0.005296345 0.036099754 0.13601987 -0.03378472 -0.03307936 0.023625553 0.03438471 0.12930767 -0.08125416 0.104961336 0.0814281 -0.16131073 0.03927753 0.103156276 0.12578635 -0.2217268 0.33960375 -0.0711609 0.038149904 0.27992997 -0.009458179 0.16943812 0.17740425 -0.15833257 -0.06738749 -0.14020465 0.0012430719 -0.035433702 0.012065351 -0.14269803 0.20581548 -0.11084162 -0.0020133997 0.024076859 0.054432202 0.20881322 -0.086911015 0.10779596 0.23942852 -0.06374708 0.07983305 -0.06827353 0.04000918 -0.061339248 -0.19381632 -0.21316034 -0.088891916
老公 -0.2546869 0.25636557 0.05217655 -0.08210206 -0.028975721 -0.26955014 0.08539229 0.36152422 -0.05245693 -0.16970836 -0.09314883 -0.1654602 0.0045550847 0.2410293 -0.008341566 -0.13391574 0.01205282 -0.06505108 -0.050394543 -0.28995806 0.080778256 0.009343347 0.08528358 -0.04536127 -0.08258335 -0.029110366 -0.09598183 -0.099436186 -0.10843672 -0.043596067 0.10436127 -0.01253041 0.041467365 -0.14957416 -0.0008794999 0.15717904 0.108325645 -0.013150457 0.008038975 -0.32211778 -0.019181002 -0.016538002 -0.20067354 -0.047027662 0.05228564 0.07099489 -0.03206644 -0.09604042 0.120145515 0.05234809 0.10004885 -0.18402672 0.069599755 -0.011848101 -0.013193472 0.1825636 0.10638504 -0.005826036 -0.14551349 0.09699037 0.027940761 0.017715588 0.053022455 -0.09861613 -0.09684458 0.053955458 0.074402854 0.13486534 -0.2529482 0.2269446 -0.10651142 0.05377584 0.27077413 -0.057728376 0.15784425 0.045124006 0.03834062 -0.07617469 -0.23864694 0.0074331854 -0.11584521 0.030959966 -0.12714764 0.053767134 -0.17524679 -0.034970433 0.09113235 0.07906866 0.111410744 0.1086774 0.3122153 0.09640353 0.13261254 0.0612759 0.12457747 0.07576308 0.08137353 -0.039533786 0.16294862 -0.04872736
精细 -0.17195465 0.33276945 0.06353363 0.09023538 0.1368134 -0.36043608 0.07734784 0.38978362 -0.081722975 -0.2832542 0.09521586 -0.27411228 0.08372932 -0.013928536 0.12345894 0.00064403465 0.17244585 -0.08657242 -0.0212813 -0.3665311 0.002650938 -0.02531089 -0.025696788 -0.33283904 -0.21609162 -0.11316641 -0.18318298 -0.092843436 0.1456907 -0.11976157 -0.09533225 0.06288712 0.14432402 0.009414314 -0.13302569 0.24338152 0.08787751 -0.09990967 0.009946194 -0.39627558 0.13170885 0.1515237 0.08190414 0.105299264 -0.011281367 -0.09498707 -0.19056696 -0.14401004 0.032323662 0.03666362 -0.07524828 -0.15422058 -0.02486648 0.20445095 0.24995315 0.2685767 0.31804594 0.2938381 0.26114953 -0.0064882697 0.06037083 -0.13309973 0.110759206 -0.053920005 -0.07752509 0.32015318 0.09577879 0.16016513 -0.17133237 -0.006674458 -0.17163977 0.016522694 0.38524896 0.09124469 0.2881627 -0.3663051 0.30962163 -0.1908593 -0.2608405 0.1425425 -0.3274692 0.27070102 0.044913005 -0.04735853 -0.11707695 0.013145532 -0.0033485603 0.05080116 0.2965075 -0.08761967 0.13533942 0.20287894 -0.03838561 0.14515649 0.18919717 0.064632185 0.10429183 0.15823404 0.22625144 0.076460496
价格 -0.19682492 0.30147088 0.08628282 0.036059536 0.0028329452 -0.34682727 0.10970159 0.42107683 -0.105736956 -0.1257061 -0.16392449 -0.22386014 0.04645358 0.15044491 0.053233076 -0.11937114 -0.03141225 -0.101550154 -0.09008772 -0.3865585 0.11460309 -0.04702244 -0.04714049 0.0055384226 -0.14465596 -0.036059212 -0.11916863 -0.02923541 -0.1660868 -0.008384003 0.07263068 0.11986264 0.08696604 -0.1221813 -0.18499154 0.17896296 0.13544981 0.06554621 0.0068878494 -0.35907367 0.015447851 -0.04398161 -0.05613047 0.04172097 0.08962473 0.08582818 0.02780415 -0.09737308 0.08001053 0.116584286 -0.034786053 -0.17030096 0.0010070036 -0.15053202 0.099017255 0.20930824 0.071194254 0.11636314 -0.013079036 -0.046851642 0.09035331 0.017350184 -0.0004296364 -0.16189139 -0.12066552 0.14567621 0.12867527 0.27255753 -0.22887036 0.19729649 -0.13664547 0.03340722 0.3023475 0.018224632 0.25652415 0.08723624 0.03660089 -0.09787934 -0.12380586 0.07301246 -0.024324674 0.113388486 -0.080997646 0.05338269 -0.12925133 -0.076637246 0.097568415 -0.0327529 0.17252824 -0.02643864 0.2113218 0.1157591 0.059893522 0.08123547 0.076934725 0.10274834 0.08788524 0.033656348 0.10117093 -0.09999091
适合 -0.0673404 -0.06933969 -0.16937095 -0.14242649 -0.050201315 -0.23778439 0.053945273 0.34466895 -0.05300412 -0.33131647 0.01571239 -0.10750686 -0.12125352 0.30882716 0.15590526 0.027587542 0.056859944 -0.21918532 -0.07437269 -0.36263683 0.036432326 0.09113462 0.26151308 -0.14828996 0.016799046 0.029393151 -0.22681966 -0.043025494 -0.0024989075 -0.11547634 0.26074514 -0.00083640916 0.10379359 -0.22424379 0.08515478 0.10013174 0.06776989 -0.06547029 -0.24982291 -0.08498532 0.011682653 -0.15260807 -0.16708136 -0.18714674 0.19994946 -0.08944344 -0.23631307 -0.04595917 0.055961415 0.22748384 0.18326913 -0.14667846 -0.02851826 0.2128513 -0.18333775 0.096313305 0.15214694 -0.17868927 -0.17771628 0.19619498 0.045743372 0.032543983 0.27614757 0.17769502 -0.14035259 0.07529561 0.06513693 0.050726447 -0.2510982 0.25605738 0.036511794 0.12318171 0.19582781 0.0016051125 -0.015943434 -0.11675325 0.07132668 -0.0596851 -0.32499054 -0.022624291 -0.03611827 -0.11956421 -0.3317192 0.27662942 -0.18828936 0.14353116 0.1366324 0.22028168 0.047559567 0.34347653 0.31735998 0.24189909 0.09216567 0.07373982 0.281616 0.17318411 0.08352015 -0.18547973 0.09930778 0.054368455
颜色 -0.2482278 0.21814692 0.0640157 0.05984122 -0.0414602 -0.41656128 0.11502225 0.41583636 -0.060535666 -0.204999 -0.05154153 -0.21310826 0.021134956 0.12360704 0.01636071 -0.12962611 -0.020822467 -0.10009291 -0.046541233 -0.30971736 0.11253405 -0.010295228 -0.03348804 -0.05484829 -0.13788696 -0.03765436 -0.13845283 -0.08789472 -0.051089738 -0.018537056 0.08937705 -0.031672485 0.08101345 -0.07914519 -0.096730165 0.2279076 0.12361202 0.049143508 0.05506777 -0.3803022 0.06752197 -0.025441647 -0.051685557 0.058104847 0.03976923 0.12576841 -0.07307946 -0.107824124 0.18030466 0.0931144 -0.06671512 -0.22969931 0.052857555 -0.036477733 0.0671387 0.338412 0.17718385 0.13838601 0.127066 0.009858529 0.045545664 0.018118132 0.0365437 -0.1100104 -0.13482381 0.114120565 0.057431914 0.2698279 -0.17161751 0.21557423 -0.11783092 -0.020251557 0.31321943 0.029081816 0.23396991 -0.04207065 0.101753294 -0.13879056 -0.1721995 0.077426076 -0.16012177 0.13846684 0.0021120326 0.06089104 -0.17619947 -0.032762125 0.057053667 0.01736191 0.1360707 0.008147425 0.23019587 0.09569657 0.068738095 0.07927101 0.047742784 0.09902453 0.10931938 0.034843653 0.1563164 -0.0366395
布料 -0.088088 0.1174149 0.0074229734 0.00514525 0.010736018 -0.22010462 0.17170365 0.3195951 -0.038447686 -0.27970305 0.06733415 -0.17471257 -0.10359199 0.024210421 0.048974756 0.017664215 0.06712166 -0.17262709 -0.034674425 -0.42961028 0.040895116 -0.032515794 0.07781717 -0.07719575 -0.091509216 0.010804902 -0.12849061 -0.12589641 -0.11209857 0.027163802 0.13706017 -0.015338 0.19632511 -0.19963223 -0.11350327 0.15844567 -0.016514398 -0.036986604 -0.031876527 -0.22330397 0.052508857 -0.13586608 0.030949172 -0.061037537 0.21088274 -0.059652112 -0.08866903 -0.06322922 0.18603337 0.23349386 -0.037356433 -0.104935065 -0.061995916 0.112428635 -0.05229699 0.24469362 0.13339338 -0.027867302 0.020240635 0.07025314 0.03183682 0.030860389 0.13690284 0.019733317 -0.25210097 0.102174155 0.037218522 0.22319521 -0.10799125 0.14536223 0.015735894 0.02751164 0.36066154 0.10473482 0.10328232 -0.11846037 0.005779731 -0.056804184 -0.17947535 0.093466796 -0.06813954 -0.01724995 -0.12938882 0.20788537 -0.08718689 0.073923424 0.12614985 0.03897858 0.16343477 0.0437021 0.16420116 0.19304486 -0.055953566 -0.0020989282 0.12303186 0.13111493 0.045060158 -0.16722569 -0.022695111 -0.02024876
太 -0.091659665 0.23386438 0.028676352 0.058008436 -0.048821013 -0.25570366 0.12873542 0.34809756 -0.15402724 -0.031296782 -0.13516358 -0.21021083 0.015813477 0.1631582 0.018301824 -0.14399654 0.07925321 -0.13434657 -0.18424454 -0.3088218 0.05893707 0.06725601 -0.00434551 0.019142233 -0.06990193 -0.026134027 -0.08789771 -0.05831179 -0.16238728 0.05065474 0.068634935 0.1806433 0.08357882 -0.08740003 -0.118069835 0.19678631 0.10237295 0.013767496 -0.052519206 -0.29980707 -0.081975125 -0.07043213 -0.029309656 0.04768094 0.13323857 0.0182932 -0.04230603 -0.066516764 0.009577732 -0.012293531 0.103205636 -0.11443886 0.05891533 -0.14728145 -0.02083505 0.050412755 0.0063417517 -0.015564805 -0.14824776 0.07495093 0.087901525 -0.034326624 0.025513705 -0.19539014 -0.15668702 0.12346708 0.14477083 0.17119913 -0.33115238 0.20167702 -0.089957654 0.08849668 0.16398627 -0.028937185 0.20726107 0.19943698 0.012931164 0.024449173 -0.14322802 0.0024771038 0.027837818 0.051012337 -0.1905741 0.014677765 -0.16291048 -0.02374454 0.077252656 -0.0014094694 0.20440401 0.06683751 0.2149569 0.074211985 0.092916064 -0.012359821 0.109056406 0.00072957005 0.13001172 -0.04596742 0.09287099 -0.07460088
标准 -0.073487446 0.07788954 -0.05403888 0.23988685 0.1407732 -0.3524618 0.0692653 0.39573747 -0.07138524 -0.43946087 0.19087613 -0.22114916 0.031388253 0.046685044 0.28172022 0.056477495 0.09642356 -0.15284 -0.07505025 -0.3599829 -0.06168015 0.062154602 0.019648258 -0.29861107 -0.15034668 -0.0833328 -0.2902346 0.023859184 0.17811354 -0.122535534 0.09069911 0.008989153 0.15480503 0.035681408 -0.09331128 0.2223778 0.16136566 -0.056827962 -0.074645795 -0.15478416 0.19195904 0.036024828 0.04462289 0.06840427 0.11270349 -0.078528956 -0.31780502 -0.03298389 0.10843779 0.11671432 -0.047704913 -0.19633417 -0.051848475 0.27840135 0.08694841 0.3090695 0.34077033 0.16076635 0.29756218 0.05504728 0.04207979 -0.0031757327 0.24167036 0.12066317 -0.09020791 0.23976554 0.020934584 0.15220705 -0.16787033 0.06948878 -0.028537443 0.015121032 0.30562973 0.16224316 0.2066585 -0.37187392 0.34313625 -0.15598898 -0.21412279 0.037819196 -0.27866575 0.14338148 -0.02285281 0.20366806 -0.18300815 0.1889442 0.047715694 0.06701512 0.21875735 0.014948224 0.13636144 0.31147134 -0.012340664 0.20319478 0.22465111 0.110733815 0.122877575 0.06616516 0.16198441 0.086078264
料子 -0.18768898 0.170107 0.012371692 0.01564427 -0.03191732 -0.27880186 0.14917234 0.34611565 -0.05005596 -0.26489237 0.0037440052 -0.17477727 -0.07196142 0.107883394 0.029052228 -0.047862582 0.07229106 -0.14120802 -0.061499342 -0.3577725 0.033097673 0.041551776 0.10942131 -0.09213839 -0.112346925 -0.009271248 -0.13891247 -0.12802193 -0.04264511 -0.02338215 0.108916044 0.015622533 0.1485492 -0.11813391 -0.04159809 0.16265073 0.071582615 -0.06695248 -0.05357521 -0.24272998 0.05780061 -0.040779702 -0.06446684 -0.09902535 0.1219974 -0.015561444 -0.11787967 -0.08751568 0.11862841 0.11307739 0.01974714 -0.16501884 -0.0042181415 0.07413586 -0.029662883 0.24803446 0.14798601 -0.043527268 -0.008233856 0.111044966 0.02485846 0.020376204 0.13000424 -0.026096597 -0.14498073 0.089229725 0.06694518 0.1647344 -0.18579671 0.18080807 -0.05054682 0.033156797 0.3244242 0.044358652 0.12994908 -0.06818188 0.086602025 -0.09065389 -0.24010858 0.050239183 -0.1291387 0.027968746 -0.101621315 0.14963184 -0.15034045 0.03914369 0.11645117 0.050060503 0.14080235 0.04531404 0.24433444 0.16303024 0.022784064 0.043300673 0.12817213 0.10749601 0.04204343 -0.08519685 0.07287944 0.048079632
宝贝 -0.109489314 0.36408776 0.06787719 0.15606603 0.0052611204 -0.38177302 0.117937446 0.31402415 -0.12731293 -0.09093444 -0.059531428 -0.26041013 -0.013785142 0.045000967 0.06150073 -0.11638897 0.02499594 -0.15362307 -0.118607104 -0.36680079 -0.04478004 -0.009909751 -0.042093813 0.024174005 -0.162385 -0.037269946 -0.03612565 -0.045187935 -0.14121151 0.08023345 -0.0013438027 0.25866717 0.11007351 -0.027335456 -0.22827215 0.19024876 0.17852463 -0.02239181 0.013507223 -0.33590773 -0.015486582 0.05956103 0.041094147 0.058143605 0.1421102 -0.0014592705 0.01078313 -0.042501785 0.06127902 0.013917976 -0.038731676 -0.09318968 0.060870294 -0.07783715 0.11366073 0.08060989 0.039667398 0.123877235 0.072423525 0.06884118 0.10114783 -0.042217232 0.0550476 -0.20573327 -0.13266242 0.13700163 0.16933917 0.23433897 -0.29852104 0.1445469 -0.16820769 0.065677606 0.29067937 -0.037964452 0.2829437 0.19246192 -0.022928968 -0.025023203 -0.048779786 0.015013806 0.0020529842 0.15920827 -0.09639773 -0.035922255 -0.08688636 -0.054670166 0.03652377 -0.0059481347 0.31167024 -0.06551546 0.082761884 0.19673587 -0.036696807 0.024156203 0.034077104 6.598901e-05 0.07798745 -0.04489186 0.06886987 -0.04238855
很棒 -0.048167054 0.05354037 -0.10341408 -0.07677095 0.011327486 -0.2614278 0.07396982 0.314804 -0.023710134 -0.2457781 0.02163566 -0.1265462 -0.045653503 0.13520236 0.14257942 0.016573792 0.044239704 -0.18449979 -0.012152667 -0.3924187 0.04609265 0.04230554 0.057943437 -0.097239204 -0.05984084 0.011934695 -0.15601648 -0.033865288 -0.09694557 -0.045325648 0.15315482 0.01727623 0.102174334 -0.16881797 -0.060353555 0.11788183 0.044868786 -0.049234767 -0.13331886 -0.15904549 -0.0021824676 -0.10044325 -0.05235885 -0.09851679 0.20242612 -0.09243772 -0.15343416 -0.068773605 0.096846834 0.17257825 0.037441928 -0.08315836 -0.03541342 0.11035225 -0.013638327 0.123094425 0.108792916 -0.031458564 -0.019982094 0.08001571 0.05965897 -0.033900704 0.12886304 0.102103084 -0.16760257 0.12940727 0.074722484 0.1333089 -0.20855784 0.18628167 -0.018693127 0.06845057 0.20822364 0.017287297 0.09213245 -0.090019345 0.048698787 -0.04486246 -0.22282869 0.055277474 -0.041861027 -0.0040885797 -0.19087304 0.23477332 -0.12310116 0.06531314 0.060707424 0.10279892 0.13822018 0.12198378 0.17939718 0.1976132 0.0028631235 0.06045733 0.14836809 0.12723511 0.06394952 -0.114657745 0.021478774 0.03557311
西装 -0.26738545 0.36332822 0.056852017 0.10540421 0.035957836 -0.40267563 0.062300954 0.3476622 -0.05229093 -0.29198584 0.028588055 -0.24142493 -0.026103435 0.06810352 0.09360311 -0.05023628 -0.030630698 -0.09642593 -0.0034792896 -0.37430814 -0.04338952 -0.09207971 0.03145815 -0.03861999 -0.1578455 -0.068262376 -0.06161753 0.03876238 -0.002005479 -0.03849339 -0.016700888 0.025491705 0.049665567 -0.042730257 -0.124115676 0.17014903 0.19203103 -0.06552214 0.10853705 -0.31472033 0.04913092 0.116969876 -0.06078005 0.04964228 0.07517159 0.026525518 -0.069729365 -0.08336242 0.15480869 0.11116169 -0.03766844 -0.16264765 0.033607487 0.108692475 0.18324837 0.20962355 0.17234367 0.19999097 0.18898529 0.016716834 0.0071800407 -0.0010305269 0.081014104 -0.06760869 -0.087410286 0.10817851 0.11215391 0.30763236 -0.22601163 0.15220146 -0.20684743 0.0678696 0.3919952 -0.05944894 0.24075432 -0.041255217 0.0979677 -0.17327796 -0.102357686 -0.008008423 -0.16490728 0.17489645 0.029767076 0.054278113 -0.04768047 -0.024634246 -0.00090911187 0.049224142 0.22688903 -0.051741064 0.056277577 0.25411096 0.025776416 0.13780238 0.091989815 0.06403673 0.10234637 0.027542252 0.21441858 -0.0028997266
刚刚 -0.13742338 -0.013438297 -0.16891351 -0.20260471 0.06683884 -0.21429066 0.023522329 0.26816857 0.023757325 -0.41384098 0.0840418 -0.03409977 -0.05056393 0.2635159 0.15425047 -0.005431566 0.0019262809 -0.12945274 -0.0055666105 -0.3900428 0.024627155 0.0945672 0.3115488 -0.15016429 0.014346038 -0.025176233 -0.21865977 -0.09011383 -0.048225526 -0.13279825 0.24909104 -0.15638766 0.14229003 -0.24312219 0.08265405 0.09169198 0.050437994 -0.11162251 -0.17722754 -0.06967772 0.049088743 -0.13485417 -0.19330366 -0.21440445 0.16979626 -0.11994856 -0.20847236 -0.049932763 0.18095525 0.24143097 0.14904813 -0.17248662 -0.10823655 0.24426423 -0.18878745 0.2130298 0.19040988 -0.19518203 -0.19943953 0.23635373 0.027983699 0.012062727 0.28799695 0.28271297 -0.1496121 0.032694265 -0.033537094 -0.011524657 -0.17375568 0.31272015 0.018410675 0.08360962 0.25409424 0.059713062 -0.047597464 -0.2079335 0.060305968 -0.07937427 -0.36889553 -0.0050330777 -0.08859596 -0.14940569 -0.26836953 0.3866138 -0.24879196 0.159189 0.14177348 0.21665256 0.005620403 0.25994077 0.34046608 0.34062797 0.11100992 0.15742037 0.28582177 0.15724841 -0.02011011 -0.21143797 -0.0056829057 0.04691115
线头 -0.13082528 0.16175298 0.001511104 -0.111781225 -0.019569179 -0.31039366 0.11841699 0.31063208 -0.023583561 -0.21355924 -0.08136556 -0.18951088 -0.057250205 0.13197105 0.029082108 -0.06003917 0.008400488 -0.17373563 -0.042909075 -0.3929032 0.07289317 0.066905625 0.080076255 -0.014846974 -0.08894986 -0.026258713 -0.11180033 -0.123258404 -0.16066107 -0.054056942 0.14451987 -0.03606705 0.12882884 -0.18866575 -0.08150307 0.16597483 0.09672018 -0.012519242 -0.08418642 -0.26615787 0.0269789 -0.14415143 -0.103514664 -0.07712136 0.12823044 -0.0012118787 -0.06761286 -0.10677262 0.114935495 0.19360238 -0.0017245013 -0.12777463 -0.016231265 0.03711325 -0.053875364 0.2016271 0.0812476 -0.073843606 -0.12326013 0.10839349 0.04385619 0.0074218735 0.08567054 -0.03190737 -0.18942219 0.06291857 0.09982554 0.15329637 -0.19081141 0.2556067 -0.057647396 0.038344145 0.2755948 0.0035883752 0.13293669 0.02829111 -0.036341976 -0.033800215 -0.24565628 0.054607492 -0.01589843 0.031986717 -0.18096319 0.19133256 -0.21829426 0.030394424 0.07348315 0.12304522 0.1166059 0.091860265 0.22556959 0.16550225 0.05719631 0.06904563 0.09597789 0.12693281 0.043974996 -0.14753614 0.05930285 -0.022315748
服务态度 0.09858929 0.3441039 0.03860897 0.12103223 -0.008744621 -0.29580986 0.28491482 0.43538234 -0.1544394 0.18049142 -0.14616263 -0.29526293 -0.16540821 -0.039960247 0.12165318 0.017846586 0.106692635 -0.26106933 -0.23032357 -0.597786 -0.009033485 -0.047548044 -0.33021772 0.023789903 -0.21775207 0.07637258 0.015483924 -0.08609753 -0.45750862 0.2612972 0.014755239 0.33415234 0.21200338 -0.14199232 -0.44621986 0.19756328 0.034408472 0.06683079 0.021164842 -0.41069832 -0.11515596 -0.23649453 0.18191633 0.21928285 0.40269032 -0.14310597 0.080494806 -0.083607055 0.1348861 0.1444088 -0.085682 0.030125597 0.045028955 -0.26038778 0.062842935 0.0881706 -0.11707955 0.08840097 -0.05992708 -0.05195693 0.1758874 0.031153422 -0.16172588 -0.33346683 -0.21670783 0.32574582 0.19917478 0.56092 -0.4489264 0.05330672 -0.103241615 0.06890491 0.24326058 0.009569126 0.34525967 0.36459595 -0.20531903 0.22405402 0.06756053 0.08118268 0.2961901 0.07285048 -0.23359491 0.0016229328 0.09795937 -0.08155785 0.106144935 -0.07828782 0.42562744 -0.10705406 0.040402368 0.16572966 -0.1764676 -0.14125018 -0.039088104 0.09301586 0.20480336 -0.057770494 -0.093639605 -0.10545497
下次 -0.046720643 0.3021466 0.11355484 0.14897871 -0.12428974 -0.3048916 0.1877906 0.34177706 -0.08539613 0.056254137 -0.1834362 -0.22768307 -0.071871325 0.13447239 0.007161745 -0.18952903 -0.0035519956 -0.17915437 -0.20052335 -0.34157914 0.06243532 0.12789829 -0.12432246 0.025252983 -0.10961366 0.040995993 -0.089497216 -0.120614745 -0.15701681 0.14603466 0.107026525 0.22164632 0.13168356 -0.014118232 -0.13475095 0.24470973 0.24306676 0.07859793 -0.046032235 -0.3135072 -0.06359762 -0.099659115 -0.05892076 0.08786418 0.10667165 0.023623655 0.031042308 -0.0460362 0.09266519 0.025358608 -0.064935036 -0.14455809 0.13083231 -0.21514478 -0.05241964 0.19811721 -0.0062248996 -0.0075543514 -0.063568115 0.14997785 0.16127841 0.07888271 0.0076191286 -0.28791547 -0.09319267 0.08302809 0.19110255 0.28393102 -0.34475794 0.2253117 -0.12516662 0.07210642 0.20531923 -0.03844322 0.24700071 0.2996003 -0.0512751 0.029572448 -0.10856221 0.074416034 0.099460036 0.028178087 -0.18350144 -0.04468702 -0.16415346 -0.07847755 0.11732896 -0.025367305 0.19738993 0.07982213 0.24706589 0.08356877 0.07570609 -0.07375096 -0.020631379 0.031562876 0.17879865 -0.014542665 0.10629927 -0.07826776
这家 -0.08723578 0.23949085 0.015916118 0.060523212 -0.06295542 -0.2886519 0.16709341 0.38823342 -0.16214468 -0.09878681 -0.1486144 -0.22342396 -0.0194372 0.2045731 -0.061068315 -0.15771396 0.022303917 -0.2881279 -0.13167812 -0.3925132 0.008942122 0.037241258 0.107129 0.14728624 -0.046453264 -0.026805647 0.027933808 -0.009292691 -0.14634876 0.03562338 0.18997626 0.39514256 0.083446845 -0.1692178 -0.14620873 0.12653923 0.24895324 0.0066354745 -0.12880622 -0.23485647 -0.056387376 -0.071051575 -0.15134318 -0.087785535 0.18103148 0.039670803 0.037795417 -0.037617534 -0.16978364 0.041094847 0.047582187 0.008176046 0.041493524 -0.16391703 -0.09391212 -0.08857568 -0.041637447 -0.10974012 -0.21604875 0.14690584 0.12891366 0.025997436 0.17374507 -0.24169827 -0.14928466 -0.023038289 0.2928554 0.12654267 -0.36145878 0.17995705 -0.09510698 0.17216462 0.23096651 -0.043943346 0.18689975 0.30343312 -0.09914545 -0.020733204 -0.12165413 0.0309736 0.1437969 0.032914326 -0.279063 0.016692743 -0.09664223 -0.06821016 0.18154103 0.0069934702 0.16921233 0.07119927 0.20244615 0.18145049 0.15099749 0.037309185 0.14368849 0.07905016 0.07593866 -0.18512855 0.09097997 -0.07734675
特性 0.020677703 -0.16941807 -0.29950306 -0.28905812 0.103918344 -0.51140803 0.06301542 0.27229983 0.115423135 -0.8295051 0.43717065 -0.09982633 -0.018210886 -0.027561009 0.22116016 0.15659863 0.10339072 -0.37380904 0.3053953 -0.6812495 0.0022947672 0.30478138 0.19699903 -0.3471748 -0.07786622 0.028171087 -0.35298014 -0.30782315 -0.04608979 -0.22011444 0.33106205 -0.33625892 0.29967248 -0.23392901 -0.11897252 0.09515697 -0.16432597 -0.2324049 -0.27428934 -0.15384659 0.309365 -0.19069268 0.059472624 -0.37614056 0.37215707 -0.20713241 -0.4153776 -0.101973355 0.2924684 0.48843333 -0.14908834 -0.15664345 -0.36287358 0.60150766 -0.038225733 0.5076081 0.26501507 -0.20126374 0.3422372 0.059840493 0.13385615 -0.13087298 0.31883213 0.6880228 -0.35266763 0.1546716 -0.055219248 -0.029637713 0.15696816 0.40574104 0.16383508 -0.087017566 0.38759476 0.32452562 -0.07400852 -0.608006 0.103162296 -0.21954955 -0.55040175 0.3005659 -0.27205566 0.0037690436 -0.21486475 0.7015346 -0.39479855 0.18998885 -0.022699455 0.30936897 0.098834574 0.12736401 0.21024452 0.32608446 -0.34362325 0.2829774 0.054740712 0.3869908 -0.050419003 -0.27212325 -0.3177182 0.25966853
说 -0.06140718 0.1862802 -0.0147381695 0.044662893 -0.037710276 -0.277312 0.11176125 0.3657105 -0.11300675 -0.06531954 -0.11082602 -0.19003402 -0.06720182 0.21077022 0.072861336 -0.0829103 0.07600745 -0.16949666 -0.18371932 -0.309729 -0.0070475144 0.11125754 -0.030778794 -0.010530156 -0.033542998 0.021025427 -0.15654922 -0.117903955 -0.23554917 0.08377607 0.10923061 0.19107266 0.11683295 -0.13129911 -0.14221537 0.17912902 0.067323096 0.003776783 -0.1002542 -0.29427797 -0.06883179 -0.106330864 -0.04272579 -0.0492237 0.21267156 -0.041460216 -0.079434514 -0.04490393 0.06779306 0.054710247 0.037701365 -0.117417954 0.110830106 -0.12799685 -0.06662995 0.09237503 -0.029926587 -0.07625987 -0.14574577 0.12039466 0.16604657 -0.013374899 -0.015301528 -0.15043697 -0.15540159 0.13149504 0.11541243 0.1868013 -0.311913 0.22528125 -0.076049626 0.08027756 0.14664437 -0.038925175 0.1984346 0.20598921 -0.086950146 0.06787498 -0.15737213 -0.02495267 0.07016047 -0.06873775 -0.22680625 0.13848789 -0.16039968 0.02901773 0.08841528 -0.02462195 0.21279101 0.103760295 0.2216196 0.07712815 0.0463803 0.013926789 0.06787244 0.08019682 0.101207234 -0.13543652 -0.02426164 -0.06602496
舒适 -0.13870041 0.17454846 0.0060620015 0.071533956 -0.00482713 -0.2746828 0.11364151 0.33995712 0.0056771366 -0.27020013 0.06259277 -0.206844 -0.12250532 0.07245518 0.091660604 0.02704914 0.05794957 -0.13757892 -0.073676385 -0.38354084 -0.02383753 -0.011272555 0.046745908 -0.1826974 -0.13731922 0.012836274 -0.20792338 -0.046740804 0.009647771 -0.04913446 0.09045853 -0.07385104 0.17986599 -0.08484969 -0.029999098 0.16767769 0.12524252 -0.05801449 -0.015085981 -0.23164816 0.03301237 -0.06149603 -0.01664581 0.0052089053 0.09103247 -0.11009739 -0.16239518 -0.06933824 0.1970658 0.20906176 -0.08598999 -0.120727494 0.04377534 0.16982217 0.0027553518 0.30338588 0.2241088 0.04503073 0.062026463 0.1454822 0.04620297 0.0379001 0.14445429 0.03435321 -0.1364874 0.13322987 0.035555393 0.2641984 -0.16722243 0.13456498 -0.056573622 0.042945478 0.33965382 0.08219722 0.14838876 -0.15834624 0.102489606 -0.09319152 -0.2022208 0.02156522 -0.12950812 0.046818092 -0.07135073 0.14203535 -0.13561377 0.076918535 0.07952105 0.035300527 0.15278216 0.09635348 0.15104508 0.22204837 0.009473404 0.042180475 0.15273167 0.10831015 0.107975684 -0.05189323 0.10557883 0.050711095
爱 -0.029840589 0.23718962 -0.029007662 0.042364575 -0.024271753 -0.1960373 0.21828061 0.31984994 -0.14919837 -0.02667945 -0.08570773 -0.15843467 -0.07486734 0.0635553 0.011146082 -0.118070185 0.10137338 -0.2516539 -0.17628258 -0.448345 -0.051804624 0.009923399 -0.0053982334 0.07982697 -0.07258844 -0.014175252 -0.01688087 -0.0862024 -0.31011268 0.1412867 0.11111472 0.32265523 0.14442554 -0.19057411 -0.20525558 0.18128188 0.05193091 -0.04544065 -0.09620866 -0.24754375 -0.10611589 -0.14899439 -0.008785508 -0.054955088 0.3086816 -0.088756375 0.042868067 -0.054883566 -0.0023786044 0.075405665 0.038223017 -0.006627607 -0.025321696 -0.15483731 -0.09671448 -0.033298723 -0.09432153 -0.110299334 -0.24010737 0.16058183 0.121099785 -0.031445984 0.11229131 -0.23040362 -0.23632614 0.08826847 0.21049874 0.19013797 -0.35499358 0.1865736 -0.04534462 0.12518737 0.20867077 0.0076879114 0.16717066 0.30214798 -0.15636274 0.102308445 -0.067772955 0.041757904 0.18207555 -0.03612313 -0.302676 0.090261385 -0.050093032 -0.04425481 0.15733428 -0.0069148764 0.25925887 0.020240327 0.15571444 0.21076033 0.031461287 -0.058210712 0.07253568 0.015644949 0.06598585 -0.20502914 -0.06581159 -0.10093535
购物 0.09439663 0.23353335 0.031722885 0.121694766 0.0076114396 -0.37746552 0.25117785 0.32247815 -0.104948096 -0.015859388 -0.018069597 -0.29702726 -0.14247115 -0.10637682 0.051452827 0.047090333 0.14145122 -0.25991148 -0.1453096 -0.51504284 -0.029437708 0.07850549 -0.22042862 -0.05707088 -0.22407381 0.099176 -0.078951135 -0.17225449 -0.23463719 0.14969125 0.07118845 0.20927164 0.23299587 -0.12854569 -0.32083842 0.18152536 0.10705448 -0.0017613759 -0.0524662 -0.36334068 0.013486825 -0.1594345 0.17240684 0.10303974 0.26020238 -0.09214386 -0.044046775 -0.031696238 0.13926043 0.14571892 -0.15241104 -0.036126483 0.004837416 -0.048752595 0.012034126 0.25564432 -0.004604972 0.07125962 0.08325894 -0.011059489 0.09288726 -0.010935008 -0.025214799 -0.15413247 -0.20167929 0.28099835 0.13685459 0.35904703 -0.23027849 0.07752266 -0.098278165 -0.00053970865 0.30696034 0.0895511 0.24763653 0.12962869 -0.072925635 0.119393826 -0.0492459 0.16904108 0.08067089 0.14393783 -0.12118322 0.009767405 -0.090816565 -0.022247277 0.069263436 0.0073001483 0.32595214 -0.093883984 0.058165137 0.20043144 -0.21182539 -0.03734317 -0.054645654 0.101897374 0.106635414 -0.10669283 -0.083009385 0.0072750384
正好 -0.13674575 0.0014950727 -0.08296296 -0.27430075 -0.004530857 -0.25573957 0.059673302 0.31269336 0.0033772658 -0.2755815 -0.062633574 -0.085079566 -0.02994623 0.26557484 0.0795835 -0.016867729 -0.031094627 -0.076548696 0.0011805515 -0.30273676 0.16175978 0.07233258 0.15191972 -0.115510195 -0.025938066 0.019450562 -0.1387124 -0.099730864 -0.112683795 -0.12500331 0.20669016 -0.19787055 0.09274611 -0.22975607 0.04816921 0.10200897 0.06464722 -0.018033372 -0.13751198 -0.17326896 0.01774126 -0.21635008 -0.22788082 -0.09941152 0.1198631 -0.021838032 -0.08932717 -0.14151445 0.1417244 0.22834478 0.1631127 -0.21241568 -0.042702742 0.09247435 -0.15099058 0.2460012 0.12779844 -0.16043411 -0.24535215 0.093787566 -0.0032425094 0.0715446 0.12075166 0.13587889 -0.08409348 0.100378424 0.0090651475 0.09044418 -0.20122239 0.31335157 -0.007092321 0.03424042 0.20272443 -0.022185637 -0.007129608 -0.06875413 0.043368153 -0.045230195 -0.3156878 0.029253801 -0.024120608 -0.06589339 -0.22453657 0.25040957 -0.21384914 0.06779746 0.13340686 0.20933495 -0.07048278 0.25437716 0.3640264 0.17880102 0.12114761 0.07030002 0.223056 0.16500752 0.061609767 -0.1253752 0.1479091 0.012495669
快递 0.051040474 0.26826155 0.024405338 0.075533174 -0.025448555 -0.26971862 0.23937164 0.38040122 -0.11729608 0.11499994 -0.15356424 -0.19637118 -0.11070839 0.038177706 0.06626815 -0.057174113 0.10258447 -0.24630037 -0.28520507 -0.454891 -0.03637175 0.07223557 -0.20809694 0.022178072 -0.14045937 0.025156721 -0.086792424 -0.10971613 -0.4165504 0.20476016 0.061509002 0.2575433 0.16943347 -0.16203238 -0.31658876 0.16755803 0.05278665 0.057789426 -0.021770103 -0.35434318 -0.12963888 -0.22920685 0.049398698 0.11670819 0.3707813 -0.10529208 0.031707857 -0.05069677 0.11128824 0.08427351 -0.08985791 -0.02194249 0.06938877 -0.2601564 -0.047629874 0.058303926 -0.13280885 -0.030277247 -0.2147396 0.06945926 0.1802844 -0.021823812 -0.07861443 -0.2410076 -0.16359507 0.22084577 0.17009379 0.35236114 -0.424343 0.14872609 -0.06656295 0.09627931 0.18883392 0.0006683997 0.290044 0.37748265 -0.22474416 0.2133041 -0.005135498 -0.032833856 0.23664658 -0.0159369 -0.25273022 0.1427712 -0.037241273 -0.04184632 0.13668892 -0.0720205 0.29636934 -0.0241922 0.1268692 0.14706543 -0.026933689 -0.097210474 0.008663398 0.04290055 0.12030238 -0.16024579 -0.14594251 -0.10454965
卖家 0.009521389 0.4075185 0.099277265 0.2049435 0.013352702 -0.34973752 0.32285574 0.36567602 -0.16165711 0.06012055 -0.1332747 -0.27530333 -0.16068941 -0.10917813 0.03544656 -0.07615426 0.04803906 -0.25098735 -0.20395559 -0.5598294 -0.09146687 -0.01639325 -0.25615066 0.09015796 -0.21093929 -0.0106949 0.009290963 -0.15644066 -0.4022296 0.26853308 0.02295694 0.2919951 0.2311041 -0.14077896 -0.44872725 0.24820267 0.094793394 0.025950635 0.08905634 -0.4088325 -0.040634904 -0.15979138 0.15566933 0.16714182 0.353346 -0.026348628 0.11873487 -0.06339313 0.16437416 0.11919468 -0.135051 -0.0004017483 -0.019261679 -0.2408449 0.038929775 0.15142834 -0.09397139 0.07501998 0.0026967886 -0.011370244 0.12226418 0.037465774 -0.03158578 -0.3695484 -0.23896933 0.16256863 0.18361789 0.45142856 -0.37014914 0.11070629 -0.085849844 0.05722732 0.35495695 0.07768668 0.35486305 0.3771901 -0.20998342 0.14718483 0.05366729 0.0849768 0.20211416 0.10758559 -0.1493871 -0.03859845 0.025838962 -0.118542664 0.106536485 -0.0489501 0.39900884 -0.19448067 0.026490424 0.26001263 -0.17304221 -0.09695147 -0.053646803 0.053340707 0.11242468 -0.14970292 -0.119428895 -0.16747399
一点 -0.105331354 -0.034072723 -0.1365603 -0.2747719 0.0066426927 -0.30911937 0.022157554 0.42383468 -0.02062465 -0.28364453 -0.08260413 -0.13071254 -0.026071617 0.32732618 0.13511756 -0.0025692699 -0.001046129 -0.19763435 0.021612935 -0.34679508 0.12464677 0.16156897 0.17956875 -0.10834493 -0.0090146465 0.029326623 -0.18036115 -0.077009715 -0.11719735 -0.13872914 0.28446758 -0.094108656 0.14363307 -0.22796366 0.032124225 0.18545288 0.0705688 -0.07145554 -0.23404865 -0.21076897 0.02296066 -0.18651494 -0.23179027 -0.20164938 0.19567257 -0.030566812 -0.18990104 -0.14869747 0.085411325 0.15887775 0.14634101 -0.18813153 -0.052728206 0.15352066 -0.16570388 0.18836172 0.17134726 -0.16988066 -0.16863823 0.13802795 0.11765575 -0.004615166 0.12150222 0.1927283 -0.1738619 0.12005924 0.037980538 0.0027308033 -0.18411863 0.36483562 -0.0030402457 0.036449183 0.14856793 0.026098544 0.003639488 -0.11329775 0.054350875 -0.10208772 -0.40287364 0.09306126 -0.0072512166 -0.11476911 -0.30049428 0.33451548 -0.23659508 0.111096054 0.11734148 0.2281636 0.02340344 0.3276517 0.40939003 0.16436109 0.13416404 0.10554421 0.27899325 0.23779634 0.06340477 -0.1793219 0.08706827 0.03198375
一件 -0.16958414 0.26018813 0.01537036 0.0009991641 -0.050347637 -0.17066501 0.19265024 0.35406086 -0.09443578 -0.14032999 -0.054155957 -0.1283695 -0.07414537 0.19230705 -0.033693727 -0.10541754 0.08916951 -0.15259565 -0.11928813 -0.3588032 0.01696517 -0.02080105 0.11042718 0.04695446 -0.021250334 -0.022111584 -0.025299182 -0.105489165 -0.1734525 0.063651845 0.10919894 0.21195893 0.114043824 -0.17046724 -0.08471104 0.16194025 0.10488179 -0.05432344 -0.06751943 -0.25106087 -0.035926275 -0.08390009 -0.10091394 -0.11424834 0.19755504 -0.0093929935 -0.025557516 -0.033774156 0.02958775 0.05358378 0.096855104 -0.06999762 0.0016183777 -0.07583723 -0.08848704 0.03195594 0.037349585 -0.11509797 -0.20704114 0.14099896 0.077793844 0.024757892 0.14351332 -0.20206371 -0.19460985 0.034290668 0.17386435 0.1355488 -0.32932037 0.18483008 -0.07960422 0.09039553 0.23602591 -0.013349532 0.14295405 0.16519316 -0.08285026 0.023709564 -0.18688051 0.036708556 0.032183167 -0.04242578 -0.20679785 0.08965637 -0.07995818 0.03212672 0.18439269 0.0004183515 0.20025936 0.06880863 0.2477074 0.1643729 0.09678224 0.01413896 0.12705687 0.06052607 0.05299402 -0.17674312 0.06938563 -0.09875995
薄 0.0176131 -0.19048394 -0.20933832 -0.15742797 0.017720517 -0.17948762 0.036541015 0.30650324 -0.061956126 -0.3923985 0.090899 -0.059003748 -0.03952866 0.21967696 0.2343033 0.03797472 0.079519846 -0.24926415 0.008610146 -0.4198273 0.1019503 0.12803897 0.26826522 -0.124099396 0.054899115 0.020060979 -0.25976866 -0.030750189 -0.02519907 -0.1277449 0.29911363 0.021694515 0.15685117 -0.25612557 0.04424821 0.12769845 0.018491233 -0.106362626 -0.34295496 -0.010346802 0.04751147 -0.20395045 -0.04478781 -0.2152876 0.22408332 -0.16692725 -0.31828147 -0.007147141 0.09072561 0.26213154 0.1483555 -0.15879749 -0.1385415 0.25744262 -0.21286541 0.09334843 0.15325806 -0.19121847 -0.14773564 0.1983074 0.06642439 -0.016811958 0.32169676 0.3023335 -0.2271602 0.14337151 0.014635107 -0.013804618 -0.15752912 0.24536653 0.093931735 0.15585086 0.19868366 0.100208566 -0.048465643 -0.26971412 0.119169794 -0.06630343 -0.36944214 0.07495848 -0.042272527 -0.18109292 -0.39959216 0.39845577 -0.2552068 0.21683608 0.12228645 0.19269177 0.07722582 0.3365414 0.33137578 0.29861256 0.03716306 0.09645229 0.31491786 0.16783099 0.068656966 -0.24517485 -0.033390548 0.045074627
码 -0.11505718 -0.11021078 -0.122236066 -0.3885928 0.057601575 -0.3611958 0.0044525126 0.4184539 0.062766135 -0.24990258 -0.15884838 -0.07267471 0.0078005726 0.2813717 0.104923755 -0.0034810721 -0.12483917 -0.12651244 0.03404712 -0.31654972 0.25772753 0.1713288 0.08848274 -0.10517034 0.011804008 0.043993518 -0.21084496 -0.18314117 -0.25228417 -0.15167168 0.25009063 -0.25735208 0.1724406 -0.28797945 -0.011731244 0.17825073 0.018193303 0.0151779 -0.21158388 -0.19897652 0.046102714 -0.3173947 -0.23003832 -0.15294336 0.1734784 -0.007698516 -0.10727259 -0.2029082 0.24665289 0.2804481 0.12257196 -0.28205448 -0.12693125 0.09455629 -0.16626197 0.3923971 0.16358125 -0.2009016 -0.21044947 0.035315864 0.06925482 0.040872365 0.017490363 0.18204308 -0.15409283 0.18961519 -0.061472736 0.035443757 -0.10222081 0.47192323 -0.0032450336 -0.049578086 0.15252842 0.04414915 -0.046895187 -0.11908493 0.07038657 -0.077603154 -0.39082873 0.15219475 0.025278972 -0.103950374 -0.24244466 0.37072217 -0.31523088 0.05736147 0.14185141 0.27235013 -0.13716479 0.29962212 0.43919438 0.1768318 0.11157546 0.14490284 0.2401476 0.30272907 0.06989594 -0.14466181 0.020860342 -0.025852839
柔软 -0.11905027 0.21499023 -0.033650838 0.0376886 0.06491135 -0.3615036 0.13508227 0.3446275 -0.016149504 -0.32628423 0.1290822 -0.21356127 -0.049707472 -0.0025462054 0.119826674 0.032205816 0.15498972 -0.12432815 -0.012191586 -0.4373313 -0.015745189 -0.0083573675 0.0047507444 -0.2669375 -0.17791703 -0.053972475 -0.19568282 -0.07983259 0.075901076 -0.1187768 0.025553562 -0.023863712 0.15744364 -0.029682282 -0.077977024 0.1798859 0.07555995 -0.09760511 -0.035112407 -0.2675748 0.11933568 0.018244177 0.048805855 -0.0071826093 0.07635166 -0.14841665 -0.20112804 -0.089170486 0.0985165 0.17790197 -0.09293182 -0.08783732 -0.026572898 0.24067254 0.101647146 0.33241788 0.29064012 0.13672476 0.2029054 0.08970183 0.032631934 -0.08775974 0.16097099 0.028333364 -0.1715196 0.2168143 0.038551256 0.17276642 -0.1225397 0.0619286 -0.051932737 -0.023806695 0.3594097 0.14842539 0.1518099 -0.28375855 0.21199866 -0.12646304 -0.26499453 0.13228236 -0.24910496 0.1677095 -0.039390508 0.07634327 -0.14204557 0.09798002 0.02790217 0.040651564 0.24111228 -0.021195024 0.121584564 0.2003772 -0.08582503 0.07014741 0.123294406 0.094385065 0.089594 0.015808102 0.08683281 0.11196118
高 -0.3484032 0.38840345 0.039516628 -0.059264585 -0.08179958 -0.2922124 0.053468216 0.3013805 0.07088154 -0.06501229 -0.15205552 -0.12906127 -0.24697807 0.34149545 0.09501139 -0.08836935 -0.037521336 -0.10350574 -0.15898386 -0.3372594 -0.17449598 0.13000117 0.12552476 -0.013046268 -0.10786673 -0.1439362 -0.1941476 -0.14689669 -0.08755255 0.002204825 0.16139887 -0.10737966 0.09721764 -0.09676355 0.061245393 0.13396427 0.16920966 0.0074196924 0.04028796 -0.28278863 -0.025101962 0.04265011 -0.3907712 -0.24753806 0.099177584 -0.025071247 -0.22502494 -0.02961301 0.16065112 0.10063735 -0.1278669 0.014462583 0.18845253 -0.0387722 -0.021785568 0.3085705 0.1762184 -0.16130172 -0.14497186 0.27629918 0.08278523 0.0063378965 0.008257431 -0.11311453 -0.17612709 -0.18269378 0.06568984 0.15604971 -0.2811591 0.31686243 -0.15003501 -0.10484122 0.19182156 -0.032616973 0.10950159 0.16399284 -0.020093156 0.019506851 -0.31426448 -0.058994237 -0.062465254 -0.17075443 -0.15246622 0.28109077 -0.22561012 0.05278699 0.12365777 -0.025195327 0.21195084 0.060786176 0.17422302 0.14573006 0.12019561 0.084848344 0.103118144 0.16097707 -0.0669724 -0.15611282 -0.038720798 0.065686606
棒 -0.0045034937 0.06640041 -0.11554799 -0.05316575 0.04908749 -0.24501154 0.08084155 0.23720877 -0.015034656 -0.2711022 0.11942605 -0.10221803 -0.035397433 0.0747962 0.117263265 0.03979765 0.06988666 -0.21756639 -0.008373209 -0.4118549 -0.045473684 0.06817846 0.123031706 -0.09948668 -0.055608325 0.0053116977 -0.096181 -0.053273223 -0.061542656 -0.034994088 0.16848002 0.056799185 0.15253168 -0.16449079 -0.090822 0.08855225 0.07081972 -0.105050616 -0.13913049 -0.14079666 0.041629948 -0.0719825 -0.023024304 -0.12856796 0.21348976 -0.12228788 -0.119839296 -0.04081885 0.05553863 0.17542163 -0.01500365 -0.043767255 -0.084012784 0.19277923 -0.03825456 0.083554104 0.06780912 -0.08898883 -0.037665863 0.12277503 0.09830293 -0.058545206 0.23336616 0.15061423 -0.14554536 0.08085706 0.084931895 0.05912966 -0.16281287 0.1884003 0.018102404 0.07762024 0.23906422 0.050667226 0.07529701 -0.09354249 -0.010975871 -0.038045384 -0.21959704 0.045301843 -0.014637349 -0.01333297 -0.21091318 0.21273738 -0.12313197 0.06675938 0.050197147 0.15244436 0.16029674 0.08736782 0.15766062 0.27043524 -0.010944548 0.0997547 0.15832923 0.12713625 0.004323905 -0.17950901 -0.056311447 0.04447288
性价比 -0.2626917 0.4129543 0.08034198 -0.059809696 0.02027795 -0.29597083 0.05830584 0.31201676 0.083537 -0.17510505 -0.0075805364 -0.18462239 -0.12747991 0.42195982 -0.06238674 -0.0015577731 -0.07864086 -0.030793427 -0.2134452 -0.28274742 -0.14553581 0.16684183 0.1771169 -0.15252069 -0.13110963 0.099987336 -0.16142084 -0.18449807 -0.0730468 0.07631707 0.19213438 -0.1548029 0.18769099 -0.12927106 0.09660527 0.17937578 0.087659925 -0.02348537 0.14897406 -0.36721042 -0.005254405 0.12804864 -0.37842137 -0.17558084 0.11225395 0.007827321 0.00489838 -0.03914836 0.2578792 -0.06133739 0.056325097 -0.20602067 0.20284754 0.1524364 0.022224579 0.22424676 0.02844627 -0.11358069 -0.16945566 0.23973313 0.21321258 0.007567441 0.0061560934 -0.030102657 0.011853031 -0.084721304 0.124069236 -0.011652368 -0.3144301 0.26607034 -0.15285899 0.117399886 0.29381496 -0.099224135 0.15618491 0.19345628 -0.1685417 -0.10597962 -0.31667736 -0.3185853 -0.08254327 -0.14599349 -0.14429003 0.15899718 -0.18098913 0.012273418 0.07842894 0.06787971 0.12087821 0.22966816 0.24707691 0.13320522 0.24130265 0.12831277 0.21347915 0.020269211 -0.0156678 -0.131801 0.119557284 -0.068085566
厚实 -0.13887623 0.1303065 -0.04589294 -0.06788162 0.014858075 -0.2693915 0.101782896 0.34469268 -0.017381616 -0.24950112 -0.015660457 -0.14263959 0.018347077 0.15936032 0.053515144 -0.055750374 0.0457962 -0.14470838 -0.015408923 -0.33030742 0.065010026 0.08695313 0.10341947 -0.114598416 -0.07851568 -0.0065630567 -0.14248322 -0.121155515 -0.048989777 -0.080129154 0.16055764 -0.012475355 0.13416518 -0.12713753 -0.056483224 0.16818178 0.029111475 -0.0631563 -0.09223525 -0.22861084 0.059992097 -0.1036579 -0.06467112 -0.13261528 0.098382674 -0.02081645 -0.13052045 -0.09476066 0.056648538 0.10842916 0.042285733 -0.16170414 -0.052015692 0.06276079 -0.032387342 0.2148163 0.15377139 -0.05063312 -0.056163542 0.08208474 0.082231805 -0.013964673 0.13245109 0.04383988 -0.14035946 0.108864866 0.060862057 0.076038614 -0.1516975 0.19821423 -0.00951425 0.014268495 0.22748454 0.06788599 0.1171741 -0.09217004 0.072599955 -0.08398274 -0.25925642 0.08649702 -0.10558357 0.006593966 -0.16154414 0.19336706 -0.17631859 0.019231169 0.12771194 0.0675234 0.097114585 0.086814545 0.2768147 0.14502993 0.04627947 0.07971241 0.15118602 0.13747208 0.039249957 -0.08174688 0.05307217 0.023465207
东西 0.0027566594 0.27421775 -0.013775798 0.14259942 0.0009651361 -0.25175804 0.13800493 0.33744344 -0.20465955 -0.014617267 -0.09873606 -0.26433682 -0.080069266 0.14924173 0.092198156 -0.11342632 0.12965296 -0.22892389 -0.20689163 -0.38392788 -0.072466746 0.04897182 0.007102985 0.039603103 -0.08295006 -0.03331557 -0.060909536 -0.04965361 -0.20498255 0.10162988 0.09805436 0.40594468 0.14803237 -0.06869211 -0.21042632 0.17258932 0.1492645 -0.045851227 -0.12555729 -0.24681239 -0.0932563 -0.0145123415 0.037689827 -0.035507604 0.22855304 -0.101710156 -0.056121834 0.037951633 -0.038896807 0.010343182 0.055937093 -0.033126984 0.09528606 -0.11898228 -0.015677545 -0.044701505 -0.030185288 -0.038785435 -0.10705397 0.13710041 0.14686927 -0.08297433 0.08993953 -0.23747544 -0.23186119 0.12188469 0.1846003 0.15983959 -0.38327575 0.14243037 -0.07240273 0.11929895 0.17900747 -0.0063529834 0.23660858 0.25745034 -0.06684077 0.09655217 -0.09804558 0.0012390151 0.107589506 -0.0031151976 -0.29536107 0.032293987 -0.10040484 0.017865462 0.0925301 -0.055796783 0.36235988 0.059881676 0.14428805 0.18828505 -0.007200613 -0.00538973 0.11803444 0.014035495 0.063977964 -0.1630265 -0.047115542 -0.045070127
码数 -0.16702417 0.08228723 -0.01609696 -0.16707994 0.027590007 -0.39377856 0.058029294 0.3770088 0.055598613 -0.25185958 -0.026674155 -0.16495116 0.022943206 0.12955493 0.090000905 0.01121062 -0.0041309344 -0.039278585 0.07340954 -0.37210673 0.2205683 0.048312556 -0.0296265 -0.18966648 -0.1418826 0.08309763 -0.19791408 -0.14342292 -0.038890075 -0.11467322 0.0856845 -0.19964911 0.085471615 -0.15811168 -0.022435615 0.12196175 0.09236737 0.000105074505 -0.027596056 -0.2927058 0.07264223 -0.11214561 -0.05014611 0.026094861 0.018212322 0.011442334 -0.10982706 -0.14131443 0.25313818 0.23930322 -0.017300457 -0.22405528 -0.029738005 0.13354203 0.04108898 0.43427113 0.22568169 0.10176245 0.09396143 -0.021246908 0.019335436 0.019144267 0.016406408 0.09576925 -0.124714516 0.24942267 -0.036410406 0.22544001 -0.080195054 0.22745551 -0.08531925 -0.018339641 0.28994256 0.04522059 0.10651315 -0.25518945 0.1456367 -0.096345186 -0.2812203 0.15385798 -0.16812766 0.16308966 -0.006539848 0.13056366 -0.20445497 8.5565785e-05 0.0051349425 0.13052107 0.0052583874 0.08198483 0.28917566 0.116536655 0.002910064 0.11282717 0.095306106 0.19219203 0.14074792 0.054613657 0.12014194 0.040532615
时尚 -0.22060274 0.2115101 0.015247965 0.01887103 -0.019409383 -0.2921024 0.1158129 0.33336815 -0.043280296 -0.28420192 0.0015704825 -0.15653382 -0.029188696 0.13798553 0.040598053 -0.07509171 -0.005234413 -0.09839199 -0.008506621 -0.34182805 0.043269705 -0.04271385 0.09003281 -0.03619701 -0.095064364 -0.056442935 -0.08043801 -0.030387565 -0.014905214 -0.036539633 0.06915184 0.010675233 0.060982957 -0.10105912 -0.035694305 0.17495926 0.13995759 -0.043931086 -0.013968276 -0.25077203 0.012628128 0.006929858 -0.09110369 -0.0101744495 0.084519446 0.015626334 -0.10167635 -0.071920276 0.13219942 0.118685886 0.026254864 -0.1460448 -0.0038554934 0.08058094 0.014913966 0.18243335 0.16448016 0.04176766 0.0077896626 0.09712353 -0.030485885 0.03326643 0.15202104 -0.036396407 -0.13727383 0.05913658 0.102275245 0.21282838 -0.21412283 0.20709598 -0.115631185 0.0655067 0.31838062 -0.02334822 0.13768551 -0.062209267 0.10204609 -0.14296433 -0.19444427 0.039576218 -0.12167074 0.07769264 -0.08811371 0.087107025 -0.095365785 0.0020816564 0.0779857 0.08657718 0.15085192 0.06432271 0.17585483 0.21744026 0.04638012 0.081658624 0.10936015 0.06462054 0.079996035 -0.045427386 0.1852473 0.00420922
摸 -0.05365138 0.067450255 -0.094850324 -0.09782154 0.06818383 -0.3005502 0.1190823 0.2752215 -0.01055583 -0.3611089 0.11638524 -0.17305288 0.0005783699 -0.003039344 0.11650985 0.0051344326 0.13806632 -0.15305488 0.045117326 -0.46969345 0.08767155 0.055290442 0.0431402 -0.18286824 -0.13970312 -0.01604083 -0.15887779 -0.11221978 -0.026719036 -0.12056401 0.11596617 -0.06372662 0.0995355 -0.13398498 -0.12640291 0.14226946 -0.027764983 -0.08006648 -0.09579529 -0.18928868 0.101403914 -0.089375205 0.11130492 -0.0662033 0.13647448 -0.13147874 -0.19565372 -0.07021935 0.13348733 0.21587366 0.029347088 -0.11158134 -0.13015397 0.22260006 -0.020933094 0.267205 0.1841307 0.0061526736 0.09368383 0.008653582 -0.0018674006 -0.06604192 0.19868426 0.15427433 -0.22212839 0.18515597 0.0030800572 0.13003638 -0.08477098 0.12386515 0.07104532 0.023097303 0.2694282 0.14598444 0.092261806 -0.24595232 0.14548539 -0.048149914 -0.27809358 0.15134221 -0.1939451 0.14439511 -0.14711797 0.18005975 -0.18093325 0.06459005 0.070406765 0.11387618 0.16105288 0.023358302 0.18088615 0.22359727 -0.14556718 0.029106501 0.11218176 0.12787217 0.07417489 -0.060275473 -0.012132076 0.116425835
图片 -0.08635594 0.24150774 -0.028257383 0.034496598 -0.0048469664 -0.3125227 0.14169466 0.30087247 -0.105428524 -0.09741547 -0.06200409 -0.21179257 -0.07951727 0.09619057 0.085569635 -0.053180926 0.032900736 -0.19476381 -0.122469656 -0.46072763 -0.046465635 -0.057624083 0.0109862685 0.06570419 -0.09190323 -0.031031696 -0.03145784 -0.036616463 -0.23564346 0.08684404 0.09736031 0.18900388 0.12553048 -0.16642258 -0.17633124 0.15432277 0.10182646 -0.037454534 -0.030457452 -0.23775807 -0.05117179 -0.08932409 -0.021116005 -0.016427768 0.26125982 -0.064359225 -0.0074204113 -0.04751434 0.1148468 0.15027906 0.009335075 -0.04121297 -0.01818346 -0.0058831177 -0.02249735 0.07032413 0.017932503 0.0028754391 -0.030928537 0.11360258 0.08082682 -0.029423168 0.09391468 -0.12238461 -0.2408234 0.09980229 0.16202985 0.23501956 -0.31351435 0.19544569 -0.08740788 0.08402347 0.28739735 -0.0066850097 0.16395766 0.17378293 -0.09731117 0.020047415 -0.06726555 0.033147264 0.063364156 0.009327506 -0.14905392 0.08093113 -0.0411903 0.0067747883 0.062704794 0.026150651 0.2739009 0.012931499 0.095634155 0.23974766 0.007124109 0.010353444 0.0584515 0.03251018 0.069679625 -0.14702933 -0.0034095102 -0.06922921
